/* auto-generated SNN weights (definition) */

#include <snn_weights.h>

const float snn_conv1_weight[32][3][5][5] = {
    0.08427685f, 0.10984984f, 0.02557801f, -0.12184340f, -0.04692298f, 0.03673805f, 0.03330825f, -0.10161350f, 
    0.09050722f, 0.03614541f, -0.07543943f, 0.06653485f, 0.11059242f, 0.05011299f, 0.00992403f, -0.07513203f, 
    0.01848292f, 0.06677555f, 0.06970122f, 0.07872035f, -0.04568066f, 0.10049655f, -0.04090734f, -0.10393190f, 
    0.03957361f, -0.09198064f, 0.04221497f, -0.12306047f, -0.12417460f, 0.04887350f, 0.10350319f, -0.05878466f, 
    0.00618907f, -0.12038912f, -0.04537345f, 0.08299019f, -0.09983926f, -0.05247874f, 0.03518953f, -0.03601090f, 
    0.06146992f, 0.09042815f, -0.02224323f, 0.02421665f, -0.03610822f, -0.08804774f, -0.03433662f, -0.08186551f, 
    -0.04307293f, -0.00860567f, 0.03992584f, 0.10988192f, -0.06742743f, 0.02344247f, -0.12194648f, 0.09152213f, 
    -0.02361174f, 0.07803217f, 0.01172410f, 0.06920483f, 0.05593016f, 0.10075397f, -0.07216418f, 0.07908558f, 
    -0.07819183f, 0.01955210f, -0.03368606f, 0.03622160f, -0.10021874f, 0.08647814f, 0.11661177f, -0.01478034f, 
    0.09824903f, 0.09474089f, 0.09277214f, -0.03215044f, 0.03152408f, 0.04989684f, 0.02419045f, -0.01818699f, 
    0.04681763f, -0.00525095f, 0.09720822f, -0.03165428f, 0.07685631f, -0.08344246f, 0.04890227f, 0.00892147f, 
    0.12645939f, 0.05333016f, 0.03265126f, -0.04234109f, 0.12533057f, 0.01551047f, -0.01247068f, 0.07516708f, 
    -0.08159010f, 0.07714823f, -0.06642971f, 0.07455492f, -0.04512665f, 0.12685260f, -0.01518029f, 0.06162170f, 
    -0.03125123f, -0.01837037f, -0.06362435f, 0.05629394f, -0.05194312f, 0.07454943f, 0.09271286f, 0.10897417f, 
    0.06671827f, -0.04245267f, -0.08877650f, 0.03532244f, 0.09336632f, 0.03855413f, -0.08348071f, -0.09588590f, 
    0.03963507f, -0.01469217f, -0.04602623f, 0.04420074f, -0.06062058f, -0.01289599f, -0.11657339f, -0.07342012f, 
    -0.06436979f, -0.10828239f, -0.02444772f, 0.05339751f, -0.02506005f, -0.02784520f, -0.07252304f, 0.07969604f, 
    -0.10915517f, -0.02914019f, -0.09576827f, 0.01313412f, -0.03336459f, 0.05958297f, 0.01516854f, -0.05240888f, 
    0.06654152f, 0.07424904f, 0.09898254f, 0.02710656f, -0.11260103f, -0.02438836f, 0.01682114f, -0.16591248f, 
    -0.14084062f, -0.05733515f, -0.01123923f, -0.04901280f, -0.07072812f, -0.14237693f, 0.07653067f, -0.09371444f, 
    0.07578076f, -0.08808995f, 0.09524076f, 0.00098384f, 0.09475063f, -0.11072710f, -0.06418791f, -0.00472052f, 
    0.07826960f, -0.04993017f, 0.00729067f, -0.00253974f, -0.06623541f, 0.07037111f, 0.06126840f, 0.01457245f, 
    -0.00084420f, -0.12034691f, -0.02126696f, 0.06707440f, -0.10543136f, -0.11977893f, 0.07071964f, -0.09913838f, 
    0.03740963f, 0.00353517f, 0.04239978f, 0.11049987f, 0.09228066f, 0.09067221f, 0.05105665f, 0.09373302f, 
    -0.11675142f, 0.03686068f, 0.11131014f, -0.01461917f, -0.04925842f, -0.11698012f, -0.02547635f, -0.04292480f, 
    -0.07621156f, -0.09829798f, 0.05726767f, -0.06601091f, 0.05260224f, 0.07524873f, 0.04455945f, 0.02344878f, 
    0.05295664f, 0.10740442f, 0.04697627f, -0.01080347f, -0.00442716f, 0.08511757f, 0.11213626f, 0.01172333f, 
    0.10809956f, -0.02695738f, 0.08786110f, -0.05270682f, -0.02032659f, -0.05340750f, 0.11923706f, 0.10767356f, 
    0.09983481f, -0.11938801f, -0.09907935f, 0.02801296f, -0.13564633f, -0.04319495f, -0.04655039f, -0.11447559f, 
    0.06477758f, 0.07527573f, 0.03098925f, 0.04506139f, 0.09292660f, -0.05268282f, -0.04722345f, -0.06670485f, 
    0.01492304f, 0.05204177f, 0.02213977f, -0.06529569f, 0.06488033f, -0.04391734f, -0.11940032f, -0.04072023f, 
    -0.07078956f, 0.04990055f, -0.10554748f, 0.00463002f, 0.01490964f, -0.11029717f, 0.03203152f, -0.06672310f, 
    -0.11298770f, -0.10428931f, 0.09597990f, -0.01400067f, 0.05527585f, 0.02174658f, 0.05801081f, -0.03266184f, 
    -0.07718065f, 0.10208960f, 0.09827083f, 0.02795167f, -0.07215556f, 0.08605319f, 0.04330992f, -0.04711255f, 
    0.05514419f, -0.00764546f, -0.01654244f, 0.01295824f, 0.09603406f, 0.12435634f, -0.02527302f, 0.11031014f, 
    -0.04079984f, 0.05127066f, 0.03750959f, 0.08419136f, 0.06621148f, 0.03483580f, 0.10410649f, 0.03267190f, 
    0.11505178f, -0.02111367f, -0.06631235f, 0.13827875f, 0.02003121f, -0.05933011f, 0.06003349f, 0.08896461f, 
    0.11938498f, -0.00141977f, -0.04171539f, -0.05182596f, -0.11328925f, 0.02197433f, -0.07561977f, 0.09488630f, 
    -0.09105768f, -0.13409163f, -0.06028521f, -0.14024878f, 0.00058929f, 0.00849278f, -0.02460436f, 0.02330043f, 
    0.05789955f, 0.01331715f, -0.06777050f, -0.03165475f, 0.09187250f, -0.04711450f, 0.05645467f, 0.04279526f, 
    -0.01877796f, -0.03499538f, -0.01252882f, -0.09490123f, -0.09572382f, -0.13968678f, -0.04513682f, -0.12933597f, 
    0.05597799f, -0.04930545f, -0.02957493f, -0.13267490f, -0.05077329f, -0.07629499f, 0.07883477f, -0.11215871f, 
    -0.06635188f, -0.08098080f, -0.00898772f, -0.01986102f, -0.06400242f, 0.01748529f, 0.01828549f, -0.03921600f, 
    0.06246586f, -0.07179029f, 0.01223031f, -0.13153781f, 0.07273466f, -0.11263103f, 0.05761177f, -0.00316478f, 
    -0.12832914f, -0.01278950f, -0.06231423f, -0.03489675f, -0.00815042f, -0.03481458f, -0.14968826f, -0.01109884f, 
    -0.13885453f, -0.13697213f, -0.05464514f, 0.00252269f, -0.11991031f, -0.02517587f, 0.05819513f, 0.00876062f, 
    -0.08640302f, 0.01443592f, 0.00497176f, -0.11228549f, 0.06035170f, 0.07733168f, -0.07534448f, -0.10969944f, 
    0.02653440f, 0.04900393f, -0.10004875f, -0.04655865f, -0.10718261f, -0.07930976f, 0.06957033f, -0.05256893f, 
    0.10663172f, 0.11256036f, 0.02537775f, 0.08359660f, 0.10524780f, 0.10640293f, 0.05509469f, 0.02975500f, 
    -0.02647797f, -0.00296711f, -0.01233198f, -0.04784317f, -0.06815118f, 0.10914195f, 0.01391054f, 0.10224039f, 
    -0.05578109f, 0.09640241f, 0.09472131f, -0.11995690f, 0.06742764f, -0.04107344f, 0.10565922f, -0.00424228f, 
    0.05553110f, 0.07133017f, 0.02282121f, -0.06365320f, -0.01913748f, -0.02255952f, -0.08115990f, -0.12036446f, 
    0.05755002f, -0.04263449f, 0.04260847f, -0.06259216f, -0.08975581f, -0.04316438f, -0.05675950f, -0.10704286f, 
    -0.01763117f, 0.03868412f, 0.09004661f, 0.12025145f, -0.00880590f, -0.03957114f, 0.08681691f, 0.08753414f, 
    0.11693495f, -0.06518261f, 0.03284729f, 0.11724710f, -0.06364902f, 0.10550603f, -0.02776940f, -0.06249711f, 
    0.01412709f, 0.08575288f, -0.05050163f, 0.09081985f, 0.01819501f, 0.12233787f, -0.08056200f, 0.08873857f, 
    0.02223541f, -0.06043423f, -0.09841695f, -0.07651738f, -0.11684618f, 0.05957677f, 0.07173728f, 0.04806341f, 
    -0.09213664f, 0.04667741f, -0.05952548f, -0.06948184f, -0.00587483f, 0.02637290f, -0.13235429f, 0.00344078f, 
    -0.00804988f, 0.02568378f, 0.05992064f, -0.10957904f, -0.05960779f, -0.07971150f, 0.00352796f, 0.07731843f, 
    -0.00729134f, -0.06229090f, -0.11320834f, 0.00428371f, -0.04532779f, 0.10486426f, -0.10360217f, 0.06919110f, 
    0.06002716f, -0.04660566f, -0.03353949f, 0.08065966f, 0.08297440f, 0.00136485f, -0.06353498f, 0.00836977f, 
    -0.06498477f, 0.08732367f, -0.05217162f, 0.06634077f, 0.03428569f, -0.05567988f, 0.04403514f, 0.03909691f, 
    -0.04897989f, -0.03845853f, -0.11461463f, -0.08647840f, -0.00059807f, 0.06131075f, 0.00432816f, -0.00319627f, 
    -0.09518819f, -0.02047832f, -0.12461509f, -0.10861810f, -0.00322863f, -0.07021470f, 0.09463494f, -0.08430863f, 
    0.00007651f, 0.03040060f, -0.07129826f, -0.09557176f, -0.02045792f, -0.00353529f, 0.02115380f, 0.08927556f, 
    -0.12868205f, 0.05728594f, 0.00366668f, -0.06289648f, -0.04974735f, 0.01053476f, -0.04001301f, 0.11845741f, 
    -0.02890723f, 0.09532311f, 0.07616460f, -0.10604434f, -0.08786419f, 0.00645627f, -0.11502534f, 0.00100842f, 
    -0.06532462f, -0.14558141f, -0.14558545f, -0.07717586f, 0.06300695f, -0.13908972f, 0.03973907f, -0.05351648f, 
    -0.05569137f, -0.02652346f, -0.08606638f, -0.14729574f, -0.14557676f, -0.12628044f, 0.08145578f, 0.14842600f, 
    0.03570069f, 0.13710690f, 0.06794570f, 0.00606429f, -0.04027424f, -0.07847238f, -0.01866905f, 0.04110482f, 
    0.09430949f, -0.03901560f, 0.03700240f, 0.02381759f, 0.01049552f, -0.02251935f, -0.06777524f, 0.10042639f, 
    0.03722023f, 0.03021707f, -0.05336227f, 0.05578065f, 0.09138651f, 0.06927190f, -0.10161576f, -0.03040640f, 
    0.16026434f, 0.13470496f, 0.05861477f, 0.14802209f, -0.06003730f, -0.01278539f, 0.09319848f, -0.04314180f, 
    0.11732784f, 0.07307898f, 0.08207635f, 0.12918597f, 0.04160843f, -0.05671864f, -0.00861933f, -0.08309468f, 
    -0.05129521f, 0.00484322f, 0.05892987f, -0.04341285f, 0.01713122f, 0.06497864f, -0.08838464f, 0.02124158f, 
    0.14652617f, 0.06053120f, 0.12163458f, 0.09825020f, 0.17299724f, 0.16485393f, 0.10771634f, -0.03258555f, 
    -0.01000018f, 0.11339337f, 0.03312969f, -0.04714699f, -0.12406089f, -0.02318147f, -0.10163196f, -0.12578727f, 
    -0.14626354f, -0.16555150f, -0.02971110f, 0.02930852f, -0.07206985f, 0.03552763f, -0.00108993f, -0.09969045f, 
    0.08193059f, 0.10563066f, 0.13651775f, 0.02447194f, 0.16562678f, 0.08716593f, -0.03956420f, -0.03651542f, 
    0.03681633f, 0.06809289f, 0.07168207f, 0.01824374f, -0.01420744f, -0.15322736f, 0.05636608f, -0.03708132f, 
    -0.11319340f, -0.20585880f, -0.14586610f, -0.12315378f, -0.16322759f, -0.18268056f, -0.12606728f, -0.02324861f, 
    -0.10023724f, 0.03409682f, 0.18547618f, 0.09301963f, 0.08753245f, 0.04320924f, 0.09270240f, 0.00265340f, 
    0.12051165f, 0.14703339f, -0.01927889f, 0.03808684f, 0.04868867f, -0.05348033f, 0.03304941f, -0.01767642f, 
    0.04454825f, 0.00907256f, -0.01172339f, -0.14501405f, -0.14550129f, 0.04139421f, -0.08749093f, -0.04277747f, 
    -0.03662290f, -0.08604518f, -0.09282976f, -0.00444933f, -0.07544196f, -0.03217382f, -0.12149944f, -0.06513408f, 
    -0.01503317f, 0.03113747f, -0.10146193f, -0.09047999f, 0.04107156f, -0.06436571f, -0.10628684f, -0.09303279f, 
    -0.15066615f, 0.05462092f, 0.00826962f, -0.08300080f, -0.02721640f, -0.01211357f, -0.08290891f, -0.13567071f, 
    -0.02995596f, -0.06516535f, -0.06537241f, 0.00727040f, 0.09873689f, -0.07885114f, 0.05255474f, 0.04886926f, 
    0.04006670f, 0.05876185f, 0.04913212f, 0.07910371f, -0.11993716f, -0.03337636f, 0.04792981f, -0.13339764f, 
    -0.02354998f, -0.12933201f, -0.04626090f, -0.05572937f, -0.01245702f, 0.00171703f, -0.11719030f, -0.11450823f, 
    -0.05466973f, -0.04617116f, 0.02799500f, 0.09024561f, 0.04104885f, -0.06246636f, 0.05889981f, 0.01908454f, 
    -0.04719869f, -0.00844400f, -0.09846877f, -0.09317764f, 0.04051863f, -0.08652688f, -0.00283102f, 0.01559998f, 
    -0.07976777f, -0.07457598f, 0.00332451f, -0.00267988f, -0.14466900f, 0.06421544f, -0.03678044f, -0.06898367f, 
    -0.08327664f, 0.07968266f, -0.03999717f, -0.01650259f, -0.10343670f, -0.02825365f, -0.04039050f, -0.07363963f, 
    0.10743243f, -0.00412694f, 0.05509142f, -0.02850701f, 0.09942449f, -0.03012100f, -0.04272107f, 0.11327678f, 
    0.00684953f, -0.07646828f, 0.10800669f, 0.03163454f, -0.04090106f, 0.08603904f, 0.06070847f, 0.09952585f, 
    0.05355806f, 0.00435548f, -0.08729254f, 0.05585755f, 0.10122834f, 0.12694561f, 0.06831024f, 0.08521783f, 
    -0.10907320f, -0.09021915f, -0.10868146f, 0.00876839f, -0.10739934f, 0.06918359f, 0.03910381f, -0.08132089f, 
    -0.02914747f, -0.05636217f, -0.03763916f, -0.02584431f, -0.05794330f, 0.00504616f, 0.05583403f, -0.03769941f, 
    -0.08859950f, 0.03784704f, -0.09810861f, -0.13922893f, -0.10804046f, -0.07726154f, 0.06917872f, -0.13712689f, 
    0.12504978f, 0.13137601f, 0.11190923f, 0.09448504f, 0.06990671f, -0.09918811f, -0.04002815f, -0.04370345f, 
    0.09633066f, -0.03264935f, 0.00826836f, -0.09139482f, 0.05065324f, 0.02862887f, 0.12535979f, 0.02003230f, 
    -0.04163588f, 0.10116148f, 0.02556774f, 0.08687089f, -0.04187264f, 0.06668460f, 0.08936326f, 0.05947007f, 
    -0.00432799f, 0.06928968f, 0.11041353f, -0.01594935f, -0.06400247f, -0.05146645f, -0.02662526f, -0.05077723f, 
    0.01883344f, -0.00260896f, 0.04240149f, 0.13869411f, -0.01771730f, 0.10017573f, 0.01910586f, -0.02865282f, 
    -0.02995320f, 0.12636392f, 0.01735713f, 0.13998580f, 0.13592657f, 0.13933028f, 0.09505671f, 0.16874947f, 
    0.12320806f, 0.06929962f, -0.03419349f, 0.03960345f, -0.08112839f, -0.07251342f, -0.07709191f, -0.00231610f, 
    -0.09293662f, -0.11270014f, 0.07301801f, -0.01232243f, 0.01118040f, -0.09344283f, -0.00499499f, -0.12999053f, 
    -0.03352404f, 0.08223718f, -0.11363684f, -0.13370794f, -0.03128881f, -0.06118963f, 0.02368864f, -0.11733215f, 
    0.05983736f, -0.06412257f, -0.08021680f, 0.07599334f, -0.04855315f, -0.09117556f, 0.11742850f, 0.09963802f, 
    0.01957708f, -0.03791058f, 0.04567840f, 0.00953438f, -0.07811739f, -0.05604043f, -0.08654990f, 0.00931663f, 
    0.02454819f, -0.06459805f, -0.01843734f, 0.04460616f, -0.10124241f, 0.07138654f, -0.08599439f, -0.12346018f, 
    -0.03556862f, -0.02168216f, -0.03564290f, 0.09876157f, -0.04965478f, -0.13561361f, -0.04850982f, 0.07374284f, 
    0.02901975f, -0.10621762f, 0.05224879f, -0.00375268f, -0.04898485f, 0.06213412f, 0.08383667f, -0.02112505f, 
    0.07995617f, -0.08028034f, -0.01573092f, -0.12213977f, -0.13070759f, -0.15267313f, 0.05258916f, 0.13371672f, 
    0.03335131f, 0.02879853f, -0.14205007f, -0.09668747f, -0.04455484f, 0.06436456f, 0.01152270f, -0.13890992f, 
    -0.08274257f, 0.16119616f, -0.06666157f, -0.14333941f, 0.06633128f, -0.06874924f, -0.03468168f, -0.08563021f, 
    -0.10857801f, -0.10734671f, -0.12082750f, -0.02760160f, -0.08364100f, -0.07517644f, -0.00174489f, 0.04251054f, 
    -0.03472868f, -0.07438061f, -0.08444225f, -0.09169583f, 0.03713495f, -0.03646431f, -0.05645897f, -0.14825241f, 
    0.08362456f, -0.09889465f, 0.12912972f, -0.13000767f, -0.10554489f, -0.00336749f, 0.07108644f, 0.14234339f, 
    0.07395858f, -0.12961513f, -0.00733354f, -0.02775950f, 0.10602698f, -0.01597281f, -0.03026621f, -0.13460535f, 
    -0.02180328f, 0.00928429f, -0.00644473f, -0.03859277f, 0.01585528f, -0.09663549f, 0.07759488f, 0.01073287f, 
    -0.08059999f, -0.00712760f, -0.06488808f, 0.05911935f, 0.08129061f, 0.07373196f, 0.06010493f, 0.10554688f, 
    -0.05748031f, 0.03922516f, -0.01095928f, -0.03704230f, -0.03712619f, -0.04394032f, -0.02870858f, 0.11035324f, 
    -0.01009608f, -0.05770928f, 0.03634218f, 0.03009628f, -0.00886253f, -0.01791143f, 0.00870555f, -0.01941493f, 
    0.11259042f, 0.09802517f, -0.04087425f, 0.02757200f, 0.04419099f, 0.06048487f, 0.01469630f, 0.00721021f, 
    -0.03459950f, -0.01026544f, 0.06098746f, 0.11625280f, 0.01662972f, -0.07841393f, -0.05039063f, 0.03966029f, 
    0.08028227f, -0.04444394f, 0.01807849f, 0.11249603f, 0.12037071f, -0.02437809f, 0.09981752f, 0.08235892f, 
    0.10948098f, 0.03664099f, 0.00080449f, -0.10499291f, -0.05690763f, 0.01382250f, 0.03591731f, -0.11673652f, 
    0.05633734f, -0.09833953f, -0.12160015f, 0.01418504f, -0.02392495f, -0.09313959f, -0.04809204f, -0.11064844f, 
    0.04031642f, -0.04845804f, -0.08849678f, 0.03083219f, -0.03555985f, 0.03854549f, 0.01772020f, 0.07490833f, 
    0.09086943f, -0.11198619f, -0.09062012f, 0.08295811f, 0.05107337f, 0.04207880f, 0.01376807f, 0.01642616f, 
    -0.11108567f, 0.09663920f, -0.07270818f, 0.02952776f, 0.07751744f, 0.01351207f, 0.03597888f, -0.11643448f, 
    -0.03877294f, -0.02818175f, 0.02831180f, 0.09214748f, -0.08673896f, -0.06164791f, -0.03461137f, 0.07618533f, 
    -0.09986815f, -0.08048797f, -0.13921499f, 0.10352055f, -0.08228092f, -0.01735747f, 0.00739577f, 0.08758906f, 
    -0.10776193f, -0.05291579f, -0.08330684f, 0.03763070f, 0.09184346f, -0.08096738f, -0.04043219f, -0.03046006f, 
    -0.00014182f, -0.05283253f, -0.05395869f, -0.02064093f, 0.00852993f, -0.07414874f, -0.06011912f, 0.03799989f, 
    0.09425811f, 0.05686232f, 0.01650040f, 0.01509443f, 0.09683567f, 0.11029359f, 0.06667177f, 0.05630888f, 
    -0.07524455f, -0.01163716f, 0.05300254f, -0.00476551f, 0.02627996f, 0.06939442f, -0.01925025f, 0.05884926f, 
    0.11740844f, -0.02573517f, 0.11665426f, -0.07507157f, 0.03050522f, 0.05338911f, -0.06501356f, 0.11976606f, 
    0.11699755f, 0.07821072f, 0.07398698f, 0.02510863f, -0.01491943f, 0.02566166f, 0.06111057f, 0.02962258f, 
    0.07749059f, -0.03508389f, -0.02458493f, -0.08974481f, 0.01032765f, -0.09009000f, 0.01330964f, 0.08560938f, 
    0.05314555f, 0.01749316f, -0.10170464f, 0.04547961f, 0.01170808f, 0.08468656f, 0.03294357f, -0.01569544f, 
    0.08500735f, -0.03004429f, 0.07350018f, -0.01100082f, -0.07269295f, -0.07442074f, -0.05571602f, 0.04401232f, 
    0.00867590f, -0.00505439f, -0.06882831f, 0.05826275f, 0.06753904f, 0.05421355f, 0.13609397f, 0.00122995f, 
    0.11773971f, 0.13090608f, 0.12524652f, -0.07301682f, 0.02563349f, 0.11980022f, 0.01496414f, 0.03118605f, 
    0.11747319f, 0.07637053f, -0.03909988f, 0.06335308f, 0.02289037f, 0.06447349f, 0.08974847f, -0.07798627f, 
    -0.06336555f, -0.01738899f, -0.09715094f, 0.08804854f, -0.08457236f, -0.08648213f, -0.03868883f, -0.07271706f, 
    -0.00222602f, 0.03735533f, 0.03651121f, 0.04126745f, -0.10983180f, 0.09012464f, -0.01255697f, -0.07732600f, 
    0.08506746f, -0.07711119f, -0.02507904f, -0.09557897f, 0.03643226f, 0.07696354f, -0.08115193f, -0.07666924f, 
    -0.09988876f, 0.04806786f, -0.06189077f, -0.00032471f, -0.07329406f, -0.07848754f, -0.09724472f, 0.00800675f, 
    -0.03932315f, -0.04503646f, -0.12936771f, 0.01860324f, -0.02124151f, 0.06781939f, -0.05197507f, -0.02375915f, 
    0.09169399f, -0.08155741f, 0.05192232f, -0.04502553f, 0.07804091f, -0.13791965f, -0.11193854f, -0.13171147f, 
    -0.10870375f, 0.09042606f, -0.09231321f, 0.01906255f, 0.08625194f, -0.11918270f, 0.08903274f, -0.08151822f, 
    -0.01343016f, -0.01394104f, 0.09041645f, 0.09215588f, -0.05161538f, 0.09878871f, -0.05147995f, -0.03564051f, 
    -0.11231659f, 0.05148292f, 0.03214003f, -0.04197691f, -0.05045845f, 0.02765558f, 0.03870902f, 0.05536533f, 
    0.07563153f, 0.08241345f, 0.10068692f, 0.03715943f, 0.07202770f, 0.02998297f, 0.06373417f, 0.09565688f, 
    0.02267472f, -0.06102585f, 0.09245395f, -0.04248063f, 0.07158214f, 0.08090916f, 0.02410178f, 0.09822561f, 
    0.09474044f, 0.09307687f, 0.14365420f, -0.00096911f, 0.06289039f, 0.11056858f, -0.02557565f, 0.01942183f, 
    0.08234730f, 0.12189204f, 0.04817325f, -0.13931780f, -0.06348155f, -0.00195151f, 0.05400499f, -0.08530313f, 
    0.02571024f, -0.10449803f, -0.02267021f, -0.05266696f, 0.07164135f, -0.12359767f, 0.04993093f, 0.03961986f, 
    0.07737294f, -0.10937058f, 0.02575595f, -0.07638326f, -0.09976602f, -0.09198502f, -0.14601021f, -0.06102912f, 
    -0.02542773f, 0.00355567f, -0.04887727f, -0.13286433f, -0.04465973f, 0.04235836f, 0.09612223f, 0.02035235f, 
    -0.03100481f, -0.01585660f, -0.01780789f, -0.00346798f, -0.02510053f, 0.04276127f, 0.09764618f, -0.06843586f, 
    0.12550849f, 0.02523182f, -0.05806185f, 0.09945812f, -0.05675901f, 0.11507392f, -0.08185660f, 0.05609597f, 
    0.05641790f, 0.01770876f, 0.05556700f, 0.10319995f, 0.06571580f, 0.05241336f, -0.00589410f, 0.05637458f, 
    0.09882439f, -0.07625707f, 0.02566358f, 0.12086000f, -0.01051491f, -0.08036251f, -0.07958685f, 0.09376694f, 
    0.11166883f, -0.06148173f, 0.11113004f, 0.03686497f, 0.02183742f, 0.07037435f, 0.02021505f, 0.11150222f, 
    0.10615128f, 0.05431686f, 0.02279318f, -0.08432143f, 0.10538834f, -0.09285281f, 0.04953829f, -0.02761359f, 
    0.12480776f, -0.03861195f, 0.15063167f, -0.03671781f, -0.07866181f, 0.09994154f, 0.07043023f, 0.18391684f, 
    0.00114151f, 0.13283461f, 0.02420701f, 0.11569723f, 0.06089940f, -0.04613060f, 0.03697748f, -0.03110243f, 
    0.17539941f, 0.14594647f, -0.00506264f, -0.06803108f, -0.05918530f, 0.04837456f, 0.15441512f, 0.04985121f, 
    0.02448829f, -0.01284791f, -0.07344808f, -0.07257089f, -0.14345406f, 0.05646641f, -0.12566395f, -0.00856891f, 
    0.06182647f, -0.11897481f, -0.04124397f, 0.02946217f, 0.00805802f, -0.04556177f, -0.02239526f, -0.07992578f, 
    -0.10782424f, 0.06554990f, 0.09267388f, -0.00027249f, -0.13358524f, 0.03394383f, 0.01230238f, 0.08171996f, 
    -0.10329046f, -0.10736013f, -0.07884943f, 0.06915438f, -0.06287409f, -0.07041091f, -0.07980575f, -0.09543476f, 
    -0.04625376f, -0.03930096f, -0.06167337f, 0.02867009f, -0.12883721f, 0.09653069f, 0.03477995f, -0.11208379f, 
    -0.00340870f, -0.04755240f, 0.04429437f, -0.00900077f, 0.01256822f, -0.08435164f, 0.03473634f, 0.03494513f, 
    -0.05677681f, -0.00723788f, -0.11248251f, 0.03958341f, 0.06244979f, -0.09540716f, 0.10823953f, 0.08927790f, 
    -0.04916792f, -0.11120985f, -0.04876648f, -0.06692740f, 0.11002600f, 0.02963205f, 0.01017794f, 0.07625541f, 
    0.01680204f, -0.07626840f, -0.02309294f, 0.06504714f, -0.05522119f, -0.12018221f, 0.03858027f, -0.04322423f, 
    -0.04599777f, -0.07294044f, 0.08963789f, 0.01206656f, -0.08639675f, -0.00056430f, 0.07221999f, 0.08592333f, 
    -0.04296228f, 0.06092325f, 0.03610342f, 0.00540940f, 0.02638315f, 0.06761421f, 0.05902278f, -0.06823463f, 
    -0.00916673f, -0.05400278f, 0.05863747f, -0.04684900f, -0.01558634f, 0.04215161f, 0.00962404f, 0.03483191f, 
    -0.11758022f, 0.06596574f, -0.01895287f, -0.04513080f, -0.03331481f, 0.00138170f, 0.06488806f, 0.13530369f, 
    -0.02353728f, 0.12482452f, 0.09402132f, -0.07770728f, -0.01654044f, 0.11978257f, 0.00312699f, 0.10617553f, 
    -0.06665915f, 0.10147341f, -0.08416087f, 0.03206808f, 0.10605858f, -0.00398500f, 0.01919848f, 0.09301339f, 
    0.04809399f, -0.06659856f, 0.08530861f, 0.03984683f, 0.02418176f, -0.00900581f, -0.02500198f, 0.06603559f, 
    -0.03282434f, -0.07498804f, -0.10847303f, -0.09565143f, 0.05873480f, 0.01685622f, -0.10027249f, -0.03051749f, 
    0.02798793f, -0.08599830f, -0.00189525f, -0.00336646f, 0.03762748f, -0.03160817f, 0.03328445f, -0.01163364f, 
    -0.12592676f, -0.07345436f, -0.03039738f, 0.07971624f, -0.06531516f, 0.00516688f, -0.00099145f, 0.00444609f, 
    0.05227493f, 0.10255678f, 0.00543616f, -0.10831389f, -0.09945364f, 0.06217517f, 0.00966265f, -0.01226503f, 
    -0.10176754f, -0.11841065f, 0.04590392f, -0.03465362f, -0.04603588f, 0.00758769f, -0.00911568f, -0.12024727f, 
    0.07546894f, 0.05464547f, -0.09588417f, -0.04782466f, 0.04023601f, -0.08718425f, -0.10892296f, -0.05542502f, 
    0.09272724f, -0.07838968f, 0.04282521f, -0.08753912f, -0.09967956f, 0.01968001f, -0.01401065f, -0.08402468f, 
    -0.08508278f, 0.04522586f, -0.02480480f, 0.10178649f, -0.06591573f, 0.09962203f, 0.09502523f, -0.04978723f, 
    0.08083275f, -0.09879761f, -0.03326249f, -0.00804857f, 0.01657291f, -0.01550044f, -0.08201898f, 0.01321300f, 
    0.04528775f, 0.05575134f, -0.12594977f, -0.00030516f, 0.05634278f, 0.02127202f, -0.00875368f, -0.06527711f, 
    -0.11896461f, 0.18330991f, 0.06773639f, 0.03821708f, 0.00443502f, 0.05340635f, -0.02503083f, 0.08549740f, 
    -0.02020283f, -0.05078014f, -0.06921750f, 0.16188318f, -0.01707905f, -0.07675979f, 0.02427170f, -0.12797858f, 
    0.03722763f, 0.09721915f, -0.01748765f, 0.04437716f, -0.15916096f, 0.06632249f, 0.14357118f, 0.03736614f, 
    -0.14134218f, -0.13198279f, 0.02501600f, 0.13753673f, -0.08057744f, -0.00969419f, -0.05965364f, 0.07719819f, 
    -0.03116559f, 0.02112089f, -0.15454827f, -0.00160990f, 0.13465752f, 0.13085848f, -0.02001085f, -0.06671941f, 
    -0.12826999f, 0.07911527f, 0.01279580f, -0.10731736f, 0.00968852f, -0.10435960f, 0.09459319f, 0.10382151f, 
    0.03095136f, -0.05361747f, -0.06167025f, 0.07779648f, -0.04641293f, -0.01389067f, -0.03661045f, -0.15628822f, 
    0.06574091f, -0.04342262f, 0.05548701f, -0.12861589f, 0.00785996f, 0.14703195f, 0.01443425f, -0.00869135f, 
    -0.06295224f, -0.01538401f, 0.06399276f, -0.08453759f, -0.01553869f, -0.03131708f, 0.09697759f, 0.05130920f, 
    -0.08749083f, -0.05993731f, 0.07773159f, 0.02490712f, 0.10485617f, -0.11082335f, 0.06070222f, 0.04346254f, 
    -0.11115021f, -0.05433701f, 0.06385963f, -0.04594620f, 0.06473219f, -0.01150339f, 0.05385890f, -0.07415119f, 
    -0.09081805f, 0.00415013f, -0.03441171f, -0.00562164f, 0.12662601f, 0.12087265f, 0.11393978f, -0.02939519f, 
    0.11425438f, 0.08500949f, -0.06961208f, -0.00258005f, -0.04722020f, -0.03441536f, 0.06864570f, 0.13617928f, 
    -0.05468369f, 0.01112760f, -0.07154145f, -0.03794906f, 0.12259075f, -0.03429053f, -0.02177670f, 0.11602554f, 
    0.07805439f, 0.04883574f, 0.06741598f, 0.12556756f, -0.00709840f, 0.06107771f, -0.11059205f, 0.02092654f, 
    -0.01767989f, -0.04352624f, -0.10441170f, -0.09718976f, -0.00231304f, 0.07312830f, 0.03560950f, -0.06732485f, 
    0.03058529f, -0.01064132f, -0.00707407f, -0.09998242f, -0.07971814f, -0.05729355f, -0.03054593f, -0.07835764f, 
    0.02911870f, 0.08398071f, -0.02664264f, -0.10723455f, 0.02425018f, -0.04450504f, 0.08841247f, 0.11268113f, 
    0.04757066f, -0.03843215f, 0.04747349f, -0.02781183f, 0.05607407f, -0.04499311f, -0.05034721f, 0.06962207f, 
    0.03016252f, 0.07196469f, 0.03412783f, -0.00399182f, 0.04145036f, 0.12275346f, 0.13358046f, -0.02678034f, 
    0.01921408f, 0.08596335f, 0.11212684f, 0.11966119f, -0.01249924f, -0.04372310f, 0.03782352f, 0.01488362f, 
    -0.10245618f, -0.06821015f, 0.03096276f, -0.02760917f, 0.00890232f, 0.04443611f, 0.02550113f, 0.07389770f, 
    0.00461886f, 0.00444847f, -0.04200092f, -0.07636234f, 0.04089746f, -0.04347752f, -0.02305639f, 0.08020704f, 
    -0.01645740f, -0.03667717f, -0.12847136f, -0.10697763f, -0.12673894f, -0.05867082f, -0.04352572f, -0.04954415f, 
    0.03971111f, -0.06084197f, 0.07165013f, 0.05027985f, 0.10117397f, 0.03580314f, 0.11647890f, 0.03737368f, 
    0.00887996f, 0.03072895f, -0.03407521f, -0.03965139f, -0.08873356f, 0.09864723f, 0.02053641f, 0.07945491f, 
    -0.05089588f, -0.10151063f, 0.03657179f, 0.08222236f, 0.02241552f, 0.03642355f, -0.09199437f, -0.00486230f, 
    0.05739340f, 0.02477985f, -0.00857501f, -0.01647726f, 0.07529978f, -0.05250674f, 0.11093746f, 0.09306104f, 
    -0.09242285f, -0.02173183f, -0.00361441f, -0.08528016f, -0.02041100f, -0.03777874f, -0.02747882f, -0.06844267f, 
    0.09401157f, 0.06999417f, 0.02105065f, -0.02500891f, 0.07201242f, 0.02997553f, -0.08514612f, -0.07545857f, 
    -0.05924322f, -0.05681447f, 0.12491775f, 0.01275014f, 0.13875295f, 0.06725910f, 0.13165449f, 0.02456903f, 
    0.05642346f, 0.11448889f, 0.13669576f, 0.04581160f, 0.06169401f, -0.07251699f, 0.02854689f, -0.02145407f, 
    0.06492204f, 0.12705554f, 0.09601572f, 0.01945438f, -0.04968673f, 0.02062031f, 0.14260471f, 0.12834199f, 
    0.13420059f, 0.05399928f, -0.06660046f, -0.02247352f, -0.08684479f, -0.11026610f, 0.01235866f, -0.04506056f, 
    -0.05105583f, -0.03250497f, -0.00230727f, -0.03452142f, 0.04363615f, 0.08924489f, -0.06616074f, -0.10914409f, 
    -0.05956519f, -0.04760875f, -0.01091264f, -0.09060860f, 0.07409918f, 0.03986863f, -0.06353270f, -0.03801478f, 
    0.07636740f, -0.03093572f, 0.09434891f, 0.03367003f, 0.08287179f, 0.04397097f, 0.03592711f, -0.06301433f, 
    -0.09740477f, -0.10332453f, 0.02609060f, 0.06530271f, -0.00692338f, -0.09938221f, -0.11493149f, -0.02369043f, 
    0.01528599f, 0.09139207f, -0.11165802f, 0.01606848f, 0.08352689f, 0.01581305f, -0.09388453f, -0.11145645f, 
    -0.06273726f, -0.02899945f, -0.10617345f, 0.03838647f, 0.08124807f, 0.08799328f, -0.08959329f, 0.02325521f, 
    0.00195838f, -0.01625874f, -0.04623371f, 0.08205140f, 0.05193567f, -0.01190732f, -0.03001378f, 0.11582031f, 
    -0.00507043f, -0.11663542f, 0.02383721f, 0.08679499f, -0.00362320f, -0.10814580f, 0.10618021f, -0.08551519f, 
    0.00197376f, -0.04251036f, 0.00528783f, 0.08964474f, -0.10474600f, 0.06945965f, -0.07072198f, -0.08814055f, 
    0.05995099f, 0.10629687f, 0.09051485f, -0.04060993f, 0.08539286f, 0.08935952f, 0.12571862f, -0.05229176f, 
    -0.05332686f, 0.10253192f, -0.00571061f, -0.05453294f, -0.03068866f, 0.06874606f, -0.04147759f, 0.10456768f, 
    0.03640881f, 0.01281312f, -0.03537784f, 0.09657641f, 0.02925085f, 0.12670889f, 0.08905292f, 0.08535681f, 
    -0.10095565f, -0.09107055f, 0.02735610f, -0.04383876f, 0.04271167f, 0.06788154f, -0.00372865f, 0.07166058f, 
    0.07408471f, 0.06952171f, -0.03574005f, 0.07795756f, 0.03067519f, 0.09696120f, -0.07514135f, 0.07013109f, 
    0.10603219f, -0.00014052f, 0.03469290f, 0.05218545f, -0.04161550f, -0.02733836f, -0.01182442f, -0.00366205f, 
    0.11970295f, -0.05999583f, 0.00266660f, 0.08619662f, 0.06130317f, -0.07690077f, -0.00241850f, -0.01099009f, 
    -0.09313463f, -0.08557873f, 0.08910551f, 0.07673136f, 0.02902085f, 0.11127773f, 0.08292302f, -0.03584389f, 
    0.09213936f, -0.06165509f, -0.09204978f, 0.02512325f, 0.09331681f, -0.08131669f, -0.10909574f, 0.08212893f, 
    0.01010282f, -0.03833760f, -0.10767554f, -0.11568779f, -0.05730699f, 0.09849608f, -0.01910864f, -0.11847144f, 
    -0.07663173f, 0.02838017f, -0.01618871f, 0.08154628f, 0.01500772f, 0.02546024f, -0.12669745f, -0.10346434f, 
    -0.06452429f, 0.05721746f, -0.07617192f, -0.11696442f, 0.09814326f, 0.00038419f, -0.08929852f, 0.04437084f, 
    -0.06299677f, -0.05613785f, -0.13200432f, -0.11829822f, -0.02623894f, -0.09740585f, -0.12282678f, -0.09164634f, 
    0.05216563f, -0.07947516f, -0.11901440f, 0.05449386f, 0.10585007f, 0.00823495f, -0.03515371f, 0.10731816f, 
    -0.02682621f, 0.11943137f, 0.14463791f, -0.02775167f, 0.01570667f, 0.02444868f, 0.14243074f, 0.10724549f, 
    0.10470091f, 0.02159214f, -0.07358021f, -0.14751591f, -0.10923228f, -0.16519980f, -0.04701974f, -0.04756147f, 
    -0.08445377f, 0.02039985f, -0.06548847f, -0.08663923f, -0.09937567f, -0.08318222f, -0.09395642f, 0.11194825f, 
    -0.09390057f, 0.01589134f, 0.09321149f, 0.14028668f, 0.07883824f, -0.03897374f, -0.03055002f, 0.14135404f, 
    -0.03311444f, 0.12915312f, -0.07908234f, -0.04854274f, -0.10678382f, -0.09849259f, -0.02311632f, 0.05628889f, 
    -0.10997391f, -0.05542666f, -0.00601149f, -0.09508809f, -0.01423197f, 0.05364444f, 0.02259540f, 0.09806652f, 
    0.09942491f, 0.12506370f, -0.03570843f, 0.04143533f, 0.02176262f, -0.00636152f, 0.14410552f, 0.15449475f, 
    0.06651781f, 0.11116461f, 0.14202738f, -0.01659177f, 0.00121039f, 0.03071426f, 0.13055372f, 0.02775337f, 
    0.08402013f, 0.11620706f, -0.07981888f, -0.04011179f, 0.11244605f, -0.07589328f, 0.00580158f, -0.07309044f, 
    0.02127967f, -0.04246400f, 0.02687485f, -0.10062345f, 0.14347053f, 0.03893680f, 0.04360202f, 0.05081001f, 
    -0.08332464f, -0.07547587f, 0.00343248f, -0.06895544f, 0.00071215f, -0.12384149f, 0.04179846f, -0.14323367f, 
    -0.06898752f, 0.04234697f, 0.04442820f, 0.00067124f, 0.07413208f, -0.10212088f, 0.02571069f, -0.02349393f, 
    -0.11128911f, -0.10937168f, 0.00664379f, -0.03052904f, -0.05047327f, -0.12955838f, -0.12407022f, -0.08165568f, 
    -0.03141550f, -0.05413121f, -0.10026078f, -0.11194428f, -0.09675006f, 0.06914169f, 0.04656582f, 0.04894703f, 
    -0.13000834f, -0.00446214f, 0.02065245f, -0.10533223f, -0.05617394f, -0.01390650f, 0.04378715f, -0.10862546f, 
    -0.11083587f, -0.04811489f, -0.01167732f, -0.00268151f, 0.01720435f, -0.11975662f, -0.14207163f, -0.01910809f, 
    -0.04242598f, -0.05945177f, 0.01048624f, -0.10086425f, 0.04601498f, 0.05828379f, 0.01054760f, -0.09171141f, 
    0.03893004f, 0.02904470f, 0.06305566f, -0.09101782f, 0.10493939f, -0.08308993f, -0.06651413f, 0.09818868f, 
    0.10433450f, -0.11766009f, 0.10983665f, 0.01642297f, -0.06427407f, -0.00448075f, -0.07431743f, 0.07002900f, 
    0.02890488f, -0.04850691f, -0.09099730f, 0.03339503f, 0.04702526f, -0.09656866f, -0.02441170f, 0.10786185f, 
    -0.02190178f, 0.04343696f, -0.10661977f, 0.08080430f, -0.03405717f, 0.06321792f, 0.02214839f, -0.05518854f, 
    0.07407222f, 0.09204769f, 0.09754080f, -0.10122598f, 0.03778173f, 0.09332705f, -0.05725711f, -0.05259718f, 
    -0.03213666f, 0.07268476f, -0.03319063f, -0.08179457f, 0.02122354f, 0.02038143f, -0.02896911f, -0.03994407f, 
    0.10265784f, 0.01103283f, -0.02528470f, -0.06613310f, 0.09627248f, -0.02737135f, -0.12052388f, 0.01759445f, 
    0.02570393f, -0.10448337f, -0.08817060f, 0.10910656f, -0.01109665f, 0.01995262f, 0.05207802f, -0.11370137f, 
    -0.05323952f, -0.04467851f, -0.10597916f, 0.08105720f, 0.09481033f, -0.10338318f, 0.04954842f, -0.02255538f, 
    -0.04842438f, 0.08662616f, 0.08082920f, -0.10848653f, -0.05883974f, -0.11764368f, 0.04563043f, -0.00365002f, 
    -0.04358126f, 0.01419329f, -0.06097941f, -0.04296207f, -0.11925266f, -0.06482875f, -0.12127160f, 0.09445626f, 
    -0.09074552f, -0.05589538f, 0.05122702f, 0.09971300f, -0.07163940f, 0.02555110f, 0.06482036f, -0.10641811f, 
    -0.03718990f, -0.05462412f, -0.10768812f, 0.10961356f, 0.06857677f, -0.06074954f, 0.03195122f, -0.00813787f, 
    -0.02681227f, -0.10307556f, 0.06788734f, -0.03784160f, -0.10951172f, -0.10634690f, -0.01483276f, 0.10272983f, 
    0.05733920f, 0.08700322f, 0.08428795f, 0.02592744f, 0.05705300f, 0.05498990f, 0.07227349f, -0.08999544f, 
    0.09323175f, 0.04486505f, -0.08937992f, -0.00987236f, 0.06087225f, 0.08288950f, 0.09303334f, 0.08595230f, 
    -0.09482922f, 0.08113387f, -0.09170695f, 0.11607328f, -0.08497021f, 0.11936849f, 0.11163040f, -0.02013300f, 
    -0.05471568f, -0.03311796f, 0.09589293f, -0.06262612f, 0.03221546f, 0.06289257f, 0.02086729f, 0.05484304f, 
    0.09688304f, 0.01776104f, -0.02926798f, 0.10664255f, 0.09192780f, -0.05530657f, -0.00085872f, 0.03226427f, 
    -0.09771543f, 0.01537620f, -0.09376395f, -0.12608422f, -0.06807210f, -0.12586956f, -0.12534027f, -0.10242363f, 
    0.01448976f, -0.08844619f, 0.06196341f, -0.12205697f, -0.02551983f, -0.03329327f, 0.07454386f, -0.11298585f, 
    -0.00250897f, 0.05731371f, -0.12345512f, -0.10843002f, -0.11433469f, -0.11314064f, -0.08920778f, -0.08774960f, 
    0.08815024f, -0.04214233f, -0.05697672f, 0.04174871f, -0.06379923f, -0.01083804f, -0.01438910f, -0.01035885f, 
    0.09354953f, -0.06196817f, 0.05766986f, -0.08416305f, -0.04645617f, -0.10883307f, 0.02329843f, -0.07320389f, 
    0.07886602f, 0.03131637f, -0.09662396f, 0.03180243f, -0.08958030f, 0.01479204f, -0.10431513f, -0.05034468f, 
    0.00731138f, 0.03844355f, 0.03192999f, 0.07998657f, 0.00809996f, 0.07873948f, -0.09895893f, 0.09358466f, 
    -0.03461922f, 0.01516362f, -0.10395072f, 0.05807690f, -0.01655929f, -0.01871493f, 0.11635088f, 0.11356095f, 
    -0.00027049f, -0.03451324f, 0.03683363f, -0.08037480f, 0.00622408f, 0.08959647f, -0.05685636f, 0.05770453f
};

const float snn_conv1_bias[32] = {
    -0.07054450f, 0.10471895f, -0.00873446f, 0.00382571f, 0.06124125f, -0.14714092f, -0.04553323f, 0.11581316f, 
    0.11893400f, -0.03410308f, -0.04935439f, 0.05606922f, 0.08416071f, -0.02600033f, -0.05359251f, 0.02948044f, 
    -0.08032362f, 0.11792668f, 0.10284284f, -0.12151909f, -0.12571093f, 0.07383544f, 0.14558493f, -0.07653075f, 
    0.08631159f, -0.02352388f, 0.13808283f, 0.02853665f, -0.04812757f, -0.10706051f, 0.01394866f, 0.02309296f
};

const float snn_conv2_weight[64][32][5][5] = {
    -0.02720137f, -0.00935636f, -0.01719110f, -0.01374851f, -0.00201240f, -0.00032627f, -0.01227889f, -0.01086802f, 
    -0.04420810f, -0.04664421f, 0.01452875f, -0.04522941f, 0.00051095f, 0.01277939f, 0.01428102f, 0.00793909f, 
    -0.00376723f, 0.00512698f, -0.02571076f, -0.01459707f, -0.03601991f, 0.01170129f, -0.00845055f, -0.03277327f, 
    -0.05247300f, -0.04044979f, -0.03354483f, -0.07277557f, -0.04209146f, -0.08904315f, -0.01441325f, 0.02277620f, 
    -0.03358648f, -0.01833383f, -0.07126505f, -0.02163166f, -0.02621264f, 0.01042947f, -0.02211551f, -0.01352883f, 
    -0.01516802f, -0.00006949f, -0.03042895f, -0.05024312f, -0.05701385f, -0.00874155f, -0.02366458f, -0.00169597f, 
    -0.02699864f, -0.07048830f, -0.00803083f, -0.00465197f, -0.04712617f, -0.00057516f, -0.03198127f, 0.01009544f, 
    0.00944037f, -0.02114094f, -0.01995689f, -0.02437690f, -0.04592482f, -0.01176050f, -0.00972040f, 0.01788540f, 
    -0.02586019f, 0.01256506f, -0.03214888f, 0.01553471f, -0.03940029f, -0.05455587f, 0.01295511f, -0.02625347f, 
    -0.01821989f, -0.05358491f, -0.04702336f, -0.05231636f, 0.00204427f, -0.05210692f, 0.01398624f, -0.02559167f, 
    0.00079996f, -0.04326210f, 0.01678324f, -0.04996864f, -0.03513271f, -0.02009614f, -0.00874047f, -0.03297552f, 
    -0.04773991f, -0.01570997f, -0.02905351f, -0.04451167f, -0.03788993f, -0.01625139f, -0.00937162f, -0.04650771f, 
    -0.01995537f, -0.02384575f, -0.01290145f, -0.01342416f, 0.01797372f, -0.00392077f, 0.01327579f, -0.01120681f, 
    0.02308857f, 0.01784525f, 0.00799011f, 0.01201815f, -0.02093537f, -0.00103765f, 0.01758976f, -0.01413213f, 
    0.02066623f, 0.01430346f, 0.00841261f, 0.00212837f, -0.03498680f, 0.01110627f, -0.01884519f, 0.01036448f, 
    -0.00469901f, -0.03261561f, 0.02872013f, -0.00865985f, 0.01609958f, -0.07304177f, -0.07083194f, -0.03530517f, 
    -0.07598173f, -0.08337735f, -0.02091641f, -0.00218884f, -0.00305942f, -0.07186690f, -0.07035477f, -0.03423731f, 
    0.01272602f, -0.03531521f, 0.01452938f, -0.01955787f, -0.00517183f, -0.03647470f, 0.00937357f, 0.02210300f, 
    0.01781484f, -0.00188803f, 0.01365545f, -0.02861001f, -0.04323520f, -0.00256129f, -0.01286284f, 0.03355126f, 
    -0.01975194f, 0.01660202f, -0.03291513f, -0.00555516f, 0.00953877f, 0.00098153f, -0.00524861f, -0.01515092f, 
    -0.00061322f, 0.00173350f, 0.02491128f, -0.01261056f, -0.01587126f, 0.00891466f, -0.01772762f, 0.02122778f, 
    0.02844052f, -0.01179345f, -0.01646857f, -0.03450597f, 0.00736893f, 0.02588547f, 0.01243727f, -0.00456611f, 
    0.00610504f, 0.01430950f, 0.00477604f, 0.00348260f, -0.01008118f, -0.02513658f, -0.00529244f, 0.02091312f, 
    0.00271083f, -0.07527041f, -0.03611526f, -0.04856741f, -0.09121860f, -0.08206563f, -0.06399402f, -0.05314228f, 
    -0.04942584f, -0.06453042f, -0.09176891f, 0.01026274f, -0.00322806f, -0.03701591f, -0.06396668f, -0.03322209f, 
    0.04468863f, 0.01901478f, 0.06863716f, 0.10720965f, 0.12310281f, 0.02069901f, 0.03447909f, 0.01212669f, 
    0.01172607f, 0.05916871f, -0.10756251f, -0.14426866f, -0.15730648f, -0.11481456f, -0.08041926f, -0.08701901f, 
    -0.10942055f, -0.17667174f, -0.15816061f, -0.15821742f, 0.00100353f, -0.00901326f, -0.02079454f, -0.01236842f, 
    -0.00123103f, 0.00662108f, 0.02091317f, 0.03310091f, -0.03322014f, -0.00360177f, 0.01902388f, -0.00774250f, 
    -0.02860694f, -0.01636577f, 0.01469401f, -0.01061279f, 0.01821914f, 0.01039011f, 0.01906991f, -0.03106278f, 
    0.00308538f, 0.02651319f, 0.00090227f, -0.01008256f, -0.02031712f, -0.01654108f, 0.01190421f, 0.01193469f, 
    -0.00033438f, 0.02341849f, -0.05576921f, -0.02601585f, -0.09497984f, -0.08406043f, -0.10729649f, -0.03900507f, 
    -0.04056849f, -0.05714458f, -0.06709816f, -0.10079727f, 0.03077380f, -0.00976609f, -0.06051270f, -0.02830124f, 
    -0.04980037f, -0.01021764f, 0.03112386f, -0.00564295f, -0.03453607f, -0.02495091f, -0.03342050f, -0.00734301f, 
    0.01269669f, -0.03039706f, -0.04216828f, 0.00980931f, -0.05635343f, -0.02665030f, -0.05957676f, -0.07474177f, 
    -0.00348910f, 0.00174745f, -0.01888943f, -0.05055554f, -0.02056108f, 0.02328601f, 0.03521819f, -0.02111549f, 
    0.02435645f, 0.01423151f, -0.03275395f, -0.01093389f, -0.02926875f, 0.00491902f, -0.03722829f, -0.02522149f, 
    -0.00897486f, -0.02343844f, -0.03757951f, -0.00677463f, 0.01731996f, 0.00710656f, -0.00360920f, 0.00133068f, 
    -0.03314637f, 0.03669694f, 0.04974777f, 0.03949248f, 0.01665457f, -0.00779292f, -0.00865628f, 0.01657137f, 
    -0.01190252f, 0.02341373f, 0.00597308f, -0.00907676f, -0.00189209f, -0.00514988f, 0.02347525f, 0.00216240f, 
    0.01179494f, -0.01650163f, -0.03176952f, -0.00266975f, -0.01872627f, -0.00934923f, -0.02948303f, -0.05450786f, 
    -0.06535489f, -0.04705751f, -0.00600487f, 0.01506666f, -0.04487174f, -0.00086921f, -0.00677456f, -0.00526891f, 
    -0.00526044f, -0.00051852f, -0.00758405f, -0.02523054f, -0.04775692f, -0.00750613f, 0.00326016f, -0.03693097f, 
    -0.05096607f, -0.04010220f, -0.01880878f, -0.02987077f, -0.04265483f, -0.01932410f, -0.04408656f, -0.04097149f, 
    -0.02930246f, -0.02333203f, -0.06109357f, -0.00422801f, -0.01405581f, -0.01607728f, -0.06329111f, -0.03059401f, 
    -0.01454573f, -0.04669117f, -0.00901431f, -0.04568327f, -0.02002369f, -0.02312960f, -0.00460308f, -0.00057700f, 
    -0.01427950f, -0.00746818f, -0.02312426f, -0.02800664f, -0.00555761f, 0.01734161f, 0.00750372f, -0.04767497f, 
    -0.00875476f, -0.02008613f, -0.04045226f, -0.06559978f, 0.02737738f, -0.04519479f, -0.02631448f, -0.00363715f, 
    -0.04085424f, 0.03292617f, -0.02744651f, -0.03593015f, 0.02177534f, -0.04155190f, -0.00133541f, -0.00114726f, 
    -0.04398651f, 0.00117975f, -0.04880896f, -0.04598504f, -0.03459605f, -0.01711487f, -0.05614994f, -0.05513224f, 
    -0.03551156f, -0.00791753f, -0.00353515f, -0.04166587f, -0.03916589f, -0.00993204f, 0.01333607f, -0.03434630f, 
    0.00966605f, -0.05439949f, 0.01978412f, -0.02792556f, 0.02235300f, 0.00850807f, -0.00840504f, -0.02881530f, 
    -0.04297515f, -0.01070798f, -0.02526360f, -0.00693795f, -0.03465101f, -0.00661816f, 0.00996847f, -0.03780641f, 
    -0.02448778f, 0.01049874f, -0.00106414f, -0.01825787f, -0.02485731f, -0.00773301f, -0.00815166f, 0.02275382f, 
    0.00492322f, -0.04668312f, -0.02383050f, -0.04262101f, -0.03205125f, -0.01055260f, -0.02717861f, -0.03432329f, 
    -0.00671755f, -0.02556369f, -0.02104033f, 0.01111155f, -0.04482179f, -0.00305154f, -0.00465270f, -0.05477082f, 
    -0.03757444f, -0.01490143f, -0.05368714f, -0.02761446f, -0.04546637f, -0.01467615f, -0.05633890f, -0.02935745f, 
    -0.05788981f, -0.00961613f, -0.03232013f, -0.02983146f, -0.04341245f, 0.00219507f, -0.05562187f, -0.06291389f, 
    0.00605708f, -0.08544549f, -0.03870366f, -0.00106023f, -0.07292902f, -0.03045495f, -0.04759587f, -0.04707131f, 
    0.00816351f, -0.05396400f, -0.01752610f, 0.00007428f, -0.00519516f, -0.01031608f, -0.06059115f, -0.06224624f, 
    0.00267794f, 0.00335920f, -0.05943515f, -0.03896961f, -0.02562449f, -0.01502972f, 0.00473625f, 0.02447147f, 
    0.01013812f, 0.02720428f, 0.00607790f, 0.02713765f, -0.02944220f, -0.00438929f, -0.02935589f, -0.01747147f, 
    -0.00095177f, 0.00884594f, -0.05606358f, 0.00231572f, 0.02226434f, -0.01305889f, 0.03378595f, 0.01567071f, 
    -0.00201286f, 0.02872514f, 0.02004223f, -0.02048520f, 0.00746104f, -0.00148656f, 0.01032542f, 0.01803419f, 
    0.02013717f, 0.02658783f, -0.02259813f, 0.01633047f, 0.00944644f, 0.00771378f, 0.02083779f, -0.00251124f, 
    0.02486457f, 0.00744390f, 0.03066485f, 0.00878701f, -0.00599114f, 0.01018068f, 0.08762063f, 0.11927082f, 
    0.12521179f, 0.04098005f, 0.02378621f, 0.00398755f, 0.07622862f, 0.07886688f, 0.01070924f, 0.02711213f, 
    0.04028005f, 0.05321940f, -0.00746573f, -0.06736106f, -0.00690282f, -0.02648924f, 0.00488853f, -0.04922181f, 
    -0.01886247f, -0.05486396f, -0.03405485f, -0.03178711f, -0.04049689f, -0.03287994f, 0.01786880f, -0.00878736f, 
    -0.05502082f, 0.01178776f, -0.03869634f, -0.01555250f, -0.03307996f, -0.02314226f, -0.01024976f, -0.04253467f, 
    -0.02973457f, 0.01153030f, -0.04805455f, -0.03938211f, -0.06941279f, -0.02342356f, -0.02800111f, -0.04208791f, 
    -0.04581768f, -0.05889545f, -0.03909485f, -0.04657187f, -0.03351082f, -0.05108399f, -0.08580528f, -0.01826053f, 
    -0.05560593f, -0.05543846f, -0.05310624f, -0.05880697f, 0.00686168f, -0.01570502f, -0.03891195f, -0.05246868f, 
    -0.02691528f, -0.00122644f, -0.04041938f, 0.00258650f, -0.03759661f, 0.00391248f, 0.01657457f, -0.02131181f, 
    0.01967443f, -0.01166073f, -0.02373776f, -0.02759502f, -0.04901677f, 0.00336396f, -0.00239136f, -0.03148137f, 
    -0.06204314f, -0.06091549f, -0.03267036f, -0.05756916f, -0.02034386f, -0.00980555f, -0.05460654f, -0.06103392f, 
    -0.07154548f, -0.03408804f, 0.02297473f, -0.01286629f, -0.04890899f, -0.04699637f, -0.01713006f, -0.03972498f, 
    -0.02117879f, -0.05210370f, -0.01563405f, -0.01691767f, -0.04379914f, -0.08078148f, -0.04193903f, -0.05501538f, 
    -0.04428190f, -0.06290558f, -0.01029868f, -0.07164419f, -0.04234004f, -0.04848742f, -0.01720724f, -0.05182531f, 
    -0.06497092f, -0.03919468f, -0.10117821f, -0.03103775f, -0.05167793f, -0.02592139f, -0.03146569f, -0.07059868f, 
    -0.01645609f, 0.00077254f, -0.05085714f, 0.00609567f, -0.06489296f, 0.00273752f, -0.05247007f, -0.05214481f, 
    -0.02815566f, -0.06755333f, 0.00303246f, -0.01356688f, -0.00128718f, -0.07987632f, -0.05767592f, -0.00137597f, 
    -0.05088790f, -0.01330354f, 0.00743153f, -0.03561955f, -0.02459476f, -0.00020768f, -0.02649003f, -0.01330894f, 
    0.00653198f, -0.00526166f, -0.03287069f, -0.03895565f, -0.00409428f, 0.00065685f, -0.00374804f, -0.05226775f, 
    -0.06935472f, -0.03664394f, -0.01096605f, 0.02170088f, 0.00816979f, -0.00963298f, 0.01088326f, -0.00507793f, 
    -0.02327154f, 0.00070386f, -0.04255937f, -0.00854696f, -0.00749002f, -0.06184233f, -0.03831384f, -0.00379991f, 
    -0.05112312f, -0.01764868f, -0.01426519f, -0.01852023f, -0.05455425f, -0.01373483f, -0.02022230f, -0.00562789f, 
    -0.03932587f, -0.03018508f, -0.05691069f, -0.02627574f, -0.02002607f, -0.02289430f, -0.02172773f, 0.02428232f, 
    0.02189916f, 0.00264373f, -0.02602193f, 0.00540064f, 0.01619447f, 0.01069216f, -0.00541589f, 0.03102717f, 
    -0.02624197f, 0.02258871f, 0.01667399f, 0.02060216f, 0.00134281f, 0.01822643f, -0.03485745f, 0.02771384f, 
    0.03196830f, -0.00879278f, -0.02102036f, 0.02298887f, 0.01961052f, 0.00269059f, -0.04093182f, 0.00984315f, 
    0.01781941f, 0.02115113f, -0.02496025f, 0.01830254f, 0.01119873f, -0.03649965f, -0.03094298f, -0.03673671f, 
    -0.01668713f, -0.00000352f, -0.00209384f, 0.01790500f, 0.00932044f, -0.02317117f, -0.00124273f, 0.01034979f, 
    0.01625219f, -0.04196863f, 0.02141415f, 0.00261820f, -0.04362847f, -0.00624230f, 0.02884735f, 0.01454195f, 
    -0.02706047f, 0.01385023f, -0.02393000f, -0.03714640f, 0.01384015f, -0.04932411f, -0.04420920f, -0.05941503f, 
    -0.01151124f, -0.04858921f, 0.01095727f, 0.00640852f, -0.00835630f, -0.05319973f, 0.00723764f, -0.05397911f, 
    0.00695485f, -0.01481980f, -0.00989728f, -0.05838029f, -0.06135416f, 0.00402749f, -0.02063041f, 0.02974509f, 
    -0.02697758f, -0.00004220f, -0.03794762f, -0.02676406f, 0.03271566f, -0.03126380f, 0.01501845f, 0.00583669f, 
    -0.02876557f, 0.03398845f, 0.03405546f, -0.01568959f, -0.00260204f, 0.01558398f, 0.01710092f, 0.02968396f, 
    0.01495022f, -0.02771163f, 0.02441156f, 0.02601158f, 0.00501021f, 0.00134530f, 0.02565725f, -0.00562821f, 
    0.01722173f, 0.01600730f, -0.02764853f, 0.01377233f, -0.03230364f, -0.00220358f, -0.00304064f, 0.01164071f, 
    -0.00091719f, 0.00398304f, -0.00475148f, 0.01252897f, 0.03972805f, 0.01979292f, 0.03309097f, -0.01098796f, 
    -0.00354863f, -0.02942328f, 0.02529517f, 0.00851059f, -0.03933211f, -0.05100704f, -0.01266457f, -0.03854007f, 
    0.02130159f, 0.02528900f, -0.00163711f, -0.01045126f, -0.00022486f, 0.03700643f, 0.00059355f, 0.03450836f, 
    0.01618707f, 0.04263989f, 0.04619365f, 0.04938519f, 0.06570508f, 0.02305020f, 0.06172203f, 0.04224823f, 
    -0.00562074f, 0.02868057f, 0.06144920f, 0.05378032f, 0.02853652f, 0.02502611f, -0.02183647f, 0.00333723f, 
    -0.02601697f, -0.00649085f, 0.00552955f, -0.00618191f, 0.01190592f, 0.01892003f, 0.03682105f, 0.00922576f, 
    0.00499862f, 0.00479850f, -0.02432831f, -0.02000142f, 0.01001687f, -0.03421371f, -0.02464306f, -0.02448444f, 
    0.02916536f, 0.00180393f, -0.03080635f, -0.04506686f, 0.00891044f, 0.02306822f, 0.02045821f, -0.01877285f, 
    -0.02175397f, -0.01109003f, 0.02015638f, -0.01462150f, 0.01646534f, -0.00828788f, -0.04069457f, -0.02335838f, 
    0.02548353f, -0.03061692f, -0.03770079f, -0.01105245f, -0.00240306f, -0.01121419f, -0.02518027f, -0.00467970f, 
    -0.06077401f, -0.03636247f, 0.00446515f, -0.06134968f, -0.00929022f, -0.05863727f, 0.01070629f, -0.03806498f, 
    -0.01733301f, -0.02661585f, -0.05202569f, -0.02531771f, 0.01411499f, -0.04706051f, 0.01269038f, -0.00092592f, 
    0.02881597f, -0.01479287f, -0.02377043f, -0.01570970f, -0.00135889f, -0.02217738f, 0.03270999f, -0.01441665f, 
    0.01854499f, 0.03520675f, -0.01683814f, -0.01578486f, -0.03957047f, -0.00119259f, 0.01494747f, -0.02209570f, 
    0.04386618f, 0.03672233f, 0.01571557f, 0.03074325f, -0.00581332f, 0.05909041f, 0.03627312f, 0.03022556f, 
    0.01852972f, 0.00997625f, 0.03605469f, 0.05288181f, 0.02922183f, 0.01115959f, 0.05838229f, 0.03228810f, 
    0.02743899f, 0.06451757f, 0.02531742f, 0.00826748f, -0.00681229f, 0.00940458f, -0.00421278f, 0.03062317f, 
    -0.02138356f, -0.06317726f, -0.02374275f, -0.04679006f, 0.00614280f, 0.02069016f, -0.06573220f, -0.02330698f, 
    -0.01949414f, 0.00714715f, -0.01008855f, 0.01655354f, -0.01634590f, 0.02312270f, 0.05652453f, -0.01645408f, 
    -0.04653337f, 0.01931260f, 0.00516891f, 0.02114535f, -0.01748739f, 0.00082739f, -0.02649607f, -0.05329329f, 
    -0.01341355f, -0.02824974f, 0.01428307f, 0.07021741f, 0.05577727f, -0.02286410f, -0.01183023f, -0.01680710f, 
    -0.01871101f, -0.02075274f, 0.01320395f, 0.02543169f, -0.05968582f, -0.11495103f, -0.07207460f, -0.05853594f, 
    -0.01574896f, -0.04321021f, -0.03278581f, -0.10941537f, -0.05965079f, -0.03626404f, -0.02204071f, -0.04735559f, 
    -0.06813181f, -0.10864809f, -0.09772193f, -0.02550272f, 0.00761065f, -0.04072293f, 0.01725255f, 0.00303907f, 
    -0.04347420f, -0.06781392f, -0.03848322f, -0.10484082f, -0.04755950f, -0.05265668f, -0.07823947f, -0.06863268f, 
    -0.05278236f, -0.04504183f, 0.03134275f, 0.01087953f, 0.01467142f, -0.05104133f, -0.01433322f, 0.09259480f, 
    0.04405053f, 0.06600472f, -0.03440501f, -0.00533804f, 0.12701328f, 0.15539856f, 0.12458267f, 0.14726901f, 
    0.05619445f, 0.03164987f, 0.01571800f, -0.02593887f, 0.01560014f, -0.01921124f, 0.00550628f, 0.00968379f, 
    0.03400487f, 0.01101311f, 0.02596602f, -0.02057755f, 0.01975830f, -0.02315982f, -0.03638331f, 0.00950492f, 
    0.00975989f, -0.03449660f, -0.01579285f, 0.02539412f, 0.01600514f, 0.02051661f, 0.01361183f, -0.00591459f, 
    -0.00124995f, -0.00001726f, 0.06164986f, 0.04802021f, 0.02806970f, 0.01301814f, -0.01227080f, 0.05709880f, 
    0.04811594f, 0.08742076f, 0.01893750f, 0.05928701f, 0.08286151f, 0.05632286f, 0.09030692f, 0.08492870f, 
    0.05795013f, 0.01064298f, 0.05155756f, 0.07500107f, 0.05240371f, 0.04608670f, 0.01779649f, -0.01370618f, 
    -0.01846335f, 0.03053300f, 0.04232186f, 0.07766164f, 0.05323203f, 0.08751095f, 0.07529994f, 0.04801982f, 
    0.09265568f, 0.10788931f, 0.15813123f, 0.16259328f, 0.09353283f, 0.08428413f, 0.08286030f, 0.14761899f, 
    0.12252460f, 0.13452399f, 0.09873898f, 0.04866647f, 0.06791221f, 0.08749790f, 0.10879819f, 0.04671158f, 
    0.03245001f, 0.04532601f, 0.01356851f, 0.01832648f, 0.00069542f, -0.03921543f, 0.03739593f, 0.05980587f, 
    0.05777911f, 0.00147667f, -0.00573950f, 0.00758840f, 0.10592286f, 0.08434667f, 0.07816377f, 0.05130621f, 
    0.06182750f, 0.05709899f, 0.08894478f, 0.05707289f, 0.07909577f, 0.09142112f, 0.07623507f, 0.08816978f, 
    -0.01480399f, 0.05217327f, 0.04193006f, 0.00316045f, 0.03974778f, -0.01380673f, -0.03679786f, 0.03531660f, 
    -0.01199003f, 0.01131361f, -0.06093904f, 0.01052075f, 0.00618302f, 0.02718590f, 0.00970159f, -0.06654989f, 
    -0.03626414f, -0.01917601f, 0.04348369f, 0.00215695f, -0.07237367f, -0.09395537f, -0.07017782f, -0.00337060f, 
    0.01569267f, -0.08961222f, -0.09629909f, -0.05631842f, -0.03743661f, -0.04581086f, -0.00068449f, 0.01909393f, 
    -0.02391546f, 0.00821873f, 0.03996751f, -0.04038824f, 0.01198319f, -0.02098946f, 0.03101231f, -0.00184258f, 
    -0.02701506f, 0.00906332f, 0.01742770f, -0.01495118f, -0.01079966f, -0.01328185f, 0.01684063f, -0.00721007f, 
    -0.00590427f, 0.01091927f, -0.00064521f, 0.00736892f, 0.00269691f, -0.04287584f, -0.03967910f, -0.01103498f, 
    0.03469926f, 0.02281994f, 0.02255285f, -0.00186144f, -0.02089174f, -0.00230843f, 0.01726735f, 0.05014179f, 
    -0.00547099f, 0.00097366f, 0.00131188f, 0.04168917f, 0.00454458f, 0.04454598f, -0.05710919f, -0.05727656f, 
    0.00831713f, -0.00721588f, -0.00139751f, -0.08745249f, -0.06748857f, -0.07342320f, -0.07173356f, -0.02422630f, 
    0.02849551f, -0.02444394f, 0.00357955f, -0.00338920f, 0.01796686f, 0.00866129f, 0.01675983f, -0.01992622f, 
    -0.02369519f, 0.00515313f, -0.02821044f, -0.04505189f, -0.02205319f, -0.05797020f, 0.00019401f, -0.00926653f, 
    -0.04146327f, -0.05980310f, -0.00805163f, 0.00055840f, -0.03018686f, -0.04223695f, -0.04293267f, -0.03931899f, 
    -0.04363726f, 0.03241912f, 0.00792435f, 0.03792391f, 0.03890876f, 0.01876916f, -0.03765973f, -0.03521665f, 
    0.01420802f, -0.04185940f, -0.02867397f, -0.03289339f, -0.05877440f, -0.03539498f, -0.02631438f, -0.03559728f, 
    -0.04784924f, -0.07052025f, -0.07332679f, -0.02960369f, -0.03254114f, -0.03516566f, -0.06710997f, -0.02397314f, 
    -0.04488455f, -0.07130333f, -0.01624717f, -0.00746511f, -0.03445398f, -0.09399681f, -0.10072473f, 0.04025398f, 
    0.11676145f, 0.04316654f, 0.02532858f, -0.01683134f, 0.15719885f, 0.13320118f, 0.10804819f, 0.07462454f, 
    0.05744087f, 0.10276797f, 0.15473361f, 0.15807042f, 0.08168213f, 0.07948453f, 0.04989300f, 0.13426794f, 
    0.12313325f, 0.06644180f, 0.11078739f, 0.04206575f, 0.05370740f, -0.00440030f, 0.05103377f, -0.00093810f, 
    -0.02844859f, 0.02728613f, 0.04012612f, 0.01240851f, 0.01565416f, -0.00051061f, 0.01087696f, 0.03838959f, 
    -0.00621631f, 0.01085083f, -0.05094251f, -0.04905064f, -0.01861039f, -0.00731768f, -0.01408079f, -0.05450600f, 
    -0.05589497f, -0.05487452f, -0.04696089f, -0.01718555f, 0.03286136f, -0.01789958f, 0.02453731f, -0.01259689f, 
    0.03573834f, 0.03788704f, 0.01298945f, 0.02703737f, 0.02839538f, -0.02473927f, -0.01942037f, 0.04996047f, 
    0.00139349f, -0.03727530f, 0.03285950f, -0.02746368f, -0.00018512f, -0.01636372f, -0.02519729f, 0.01655755f, 
    -0.02311542f, -0.00760930f, -0.01354768f, 0.02968673f, 0.01368987f, -0.12768348f, -0.11467692f, -0.07070107f, 
    0.00355143f, -0.03620362f, -0.09699713f, -0.10119049f, -0.01436835f, 0.01190916f, -0.01022667f, -0.06318324f, 
    -0.06162496f, -0.03446474f, -0.00286590f, 0.00590275f, -0.02133441f, -0.09613069f, -0.02132989f, -0.02085024f, 
    -0.02889067f, 0.03833383f, -0.00285584f, -0.08575399f, -0.01749895f, -0.03486494f, -0.00210133f, 0.00706112f, 
    -0.01540666f, -0.00269077f, -0.03645853f, -0.00115132f, -0.02691506f, 0.01103732f, -0.00745908f, -0.02922407f, 
    -0.01553527f, 0.02667621f, 0.03993541f, 0.01665811f, 0.02663317f, -0.06322685f, -0.04008042f, 0.02418882f, 
    -0.02555097f, 0.01728297f, -0.04941149f, -0.01651263f, -0.03343043f, -0.05280389f, -0.00450639f, 0.04273814f, 
    0.00369274f, 0.05341913f, 0.01604259f, 0.04764357f, 0.01953019f, 0.02474208f, 0.05401774f, 0.06688491f, 
    0.04954882f, 0.00830359f, 0.05629884f, 0.04542541f, 0.05841644f, 0.05185473f, 0.01247883f, 0.03177483f, 
    -0.02108163f, 0.00166594f, 0.02459983f, -0.03977552f, -0.01558145f, -0.04194282f, -0.01130255f, -0.01674382f, 
    -0.01067988f, 0.01705173f, 0.00701797f, -0.00275068f, 0.04153514f, 0.00518020f, 0.00824140f, -0.00473746f, 
    -0.00814339f, 0.02709336f, -0.00797887f, 0.00387470f, 0.02868095f, 0.01324151f, 0.03092900f, -0.10218848f, 
    -0.08414112f, -0.04483539f, -0.02705295f, -0.00335119f, -0.10906865f, -0.07101179f, -0.07435536f, -0.01889210f, 
    -0.03103031f, 0.01897845f, -0.02425775f, 0.01804246f, -0.03434569f, 0.00520246f, -0.02840706f, -0.02646786f, 
    0.00727953f, 0.00522088f, -0.03587380f, 0.03034643f, 0.03556052f, -0.01117831f, -0.04153275f, -0.03769029f, 
    0.02495180f, -0.01047987f, -0.01242791f, -0.00794766f, 0.00141945f, -0.04873168f, -0.02316260f, -0.03099377f, 
    -0.00153751f, -0.03368562f, -0.02934293f, 0.02084676f, 0.02451546f, -0.01848453f, -0.01173666f, 0.03894769f, 
    0.00352406f, 0.05143647f, 0.07041094f, 0.05169303f, 0.05491658f, 0.07789627f, 0.06506739f, 0.07596508f, 
    0.05389959f, -0.00158098f, 0.01247173f, 0.05322855f, 0.03927677f, -0.00208913f, 0.01626984f, -0.04019041f, 
    -0.02037391f, -0.00536222f, 0.01855968f, 0.05124296f, 0.04434087f, 0.00208608f, 0.02741017f, 0.00180010f, 
    0.00817322f, -0.02256943f, 0.03528547f, 0.01820270f, 0.01064083f, -0.04245884f, -0.04834800f, -0.03031588f, 
    -0.01075843f, 0.00277834f, -0.01093326f, -0.01507014f, -0.04983611f, 0.01756771f, -0.01355777f, 0.01801079f, 
    0.00140820f, 0.00812177f, 0.04910649f, 0.05755347f, -0.00469811f, -0.01307747f, -0.00144953f, -0.01369494f, 
    -0.01034901f, 0.01967976f, 0.02955451f, 0.04194890f, 0.03690910f, 0.04199602f, -0.01220026f, 0.01989477f, 
    0.05797441f, 0.05907971f, -0.01990094f, -0.01603888f, -0.00701767f, 0.04602269f, -0.01189148f, 0.01043796f, 
    0.04039698f, 0.02562904f, 0.02990873f, -0.00615930f, 0.01504818f, 0.00024390f, -0.00390358f, -0.03343394f, 
    0.01868097f, -0.00063898f, -0.01562003f, 0.02675134f, -0.01824856f, -0.02611539f, -0.01279818f, -0.02351539f, 
    0.02574975f, -0.02919452f, 0.01763936f, -0.00759382f, 0.01024931f, -0.00096539f, -0.00693665f, 0.00400420f, 
    0.00733377f, -0.02254921f, -0.01875151f, 0.02177816f, -0.01702734f, -0.01884518f, 0.00963701f, 0.02991255f, 
    -0.03427572f, 0.02424234f, 0.00719209f, 0.00317914f, -0.01282661f, -0.04991018f, -0.02985422f, -0.03305910f, 
    -0.02232857f, -0.00853665f, -0.06993090f, -0.06002828f, -0.03849555f, -0.05623208f, -0.02270553f, -0.06813994f, 
    -0.04970026f, 0.00196760f, -0.04639517f, -0.02239002f, -0.08358715f, -0.02693714f, -0.04095570f, 0.02828490f, 
    0.02296066f, 0.00476544f, 0.00151767f, -0.00126587f, 0.00845041f, -0.00270177f, -0.03021577f, 0.01558131f, 
    -0.01258037f, -0.01898492f, 0.02956728f, -0.01425978f, 0.04148763f, 0.02032639f, 0.04195396f, 0.03425532f, 
    0.02008654f, -0.01111935f, 0.00846675f, 0.03910313f, -0.01306125f, 0.03882623f, -0.00636700f, 0.05614555f, 
    0.01222998f, -0.03485698f, 0.01034923f, -0.03491057f, -0.02966700f, -0.03046910f, 0.00895744f, -0.02857676f, 
    -0.01110124f, -0.01919779f, 0.01700230f, 0.02904202f, 0.01587918f, 0.03006560f, -0.02320590f, 0.01773116f, 
    -0.02474781f, 0.01285863f, -0.03012632f, -0.03391371f, -0.00218834f, -0.01338972f, 0.02747676f, -0.00060752f, 
    -0.01457922f, -0.02188967f, -0.00337901f, 0.00627662f, -0.02821164f, -0.00525689f, -0.03592407f, -0.01795230f, 
    -0.03039891f, -0.03572517f, -0.01579448f, -0.01841344f, -0.01918215f, -0.04619361f, -0.03857789f, 0.00556019f, 
    -0.02898310f, -0.00311753f, -0.03709260f, 0.00338134f, -0.03319792f, 0.01578965f, -0.03583151f, -0.04835439f, 
    -0.04724254f, -0.05125955f, -0.00572313f, 0.03192108f, 0.02555417f, 0.03919475f, 0.03886251f, 0.02229698f, 
    0.03889094f, 0.04723459f, 0.03161220f, 0.05404247f, -0.00109178f, -0.02151080f, 0.00877425f, 0.03401617f, 
    0.03514267f, -0.00400928f, -0.01041597f, -0.01721425f, 0.02394874f, 0.04292451f, -0.02039663f, 0.01779154f, 
    0.02431954f, 0.01116740f, 0.03978546f, -0.02215375f, -0.01987495f, 0.00903809f, -0.01281549f, 0.02031954f, 
    0.02199779f, 0.02388557f, 0.02972810f, 0.06150978f, 0.05521237f, 0.05393003f, -0.00606325f, 0.02516924f, 
    -0.00115850f, 0.01867840f, 0.02337850f, -0.00435410f, 0.04240160f, 0.03518342f, 0.00623921f, 0.03023389f, 
    0.03282901f, 0.01585309f, 0.00516983f, 0.04559155f, -0.00261886f, 0.02130540f, 0.00055346f, 0.02341050f, 
    0.03532088f, -0.00225379f, 0.03152150f, -0.00580043f, -0.01700960f, -0.01024848f, -0.01797569f, 0.00789985f, 
    -0.01539185f, -0.02133295f, 0.04277873f, 0.01534630f, 0.00515398f, 0.00646502f, -0.02840786f, 0.00247884f, 
    0.01648525f, 0.04640332f, 0.01941588f, 0.01274155f, 0.03808365f, 0.00171357f, -0.03542767f, -0.02472089f, 
    0.02889230f, 0.04143869f, -0.00874695f, -0.01407782f, -0.01889232f, 0.00682193f, 0.03061884f, 0.01884297f, 
    0.01063978f, -0.02933449f, -0.00359678f, 0.00779950f, -0.00805568f, 0.02002366f, -0.02118051f, 0.00590287f, 
    -0.02157389f, 0.01760546f, 0.02293012f, 0.02103386f, -0.00923243f, 0.00705963f, 0.00694647f, -0.01349880f, 
    -0.00140183f, -0.03656114f, -0.02892462f, 0.03956655f, -0.00737219f, -0.04941056f, -0.02778057f, -0.02413567f, 
    -0.05813924f, -0.03410527f, -0.03964925f, -0.01508662f, -0.00469955f, -0.00113047f, -0.06141202f, 0.03485058f, 
    0.02021530f, 0.02209481f, 0.01071627f, -0.01262649f, 0.05042664f, 0.04021569f, -0.00080293f, -0.03969809f, 
    0.03949378f, 0.07360530f, 0.08070268f, 0.06270300f, -0.00514050f, 0.02330090f, 0.10104939f, 0.08735242f, 
    0.01645187f, 0.00208136f, 0.02962401f, 0.11679807f, 0.04950374f, 0.04004762f, 0.02080328f, 0.05755452f, 
    0.11484233f, 0.05116510f, 0.08824886f, 0.03953231f, 0.03307413f, 0.09474446f, 0.07038181f, 0.08303966f, 
    -0.05310741f, -0.03239322f, -0.03750071f, -0.04089666f, 0.01451708f, -0.11374046f, -0.09105585f, -0.06008319f, 
    -0.03369090f, -0.05436024f, -0.06937601f, -0.07268839f, -0.03404055f, -0.02600155f, -0.04525148f, -0.01896495f, 
    -0.01866848f, -0.00222741f, -0.00593884f, -0.00241643f, -0.00906034f, 0.00971401f, 0.06206025f, 0.07684234f, 
    0.06902428f, -0.03300883f, -0.03286308f, -0.03766005f, -0.02787100f, -0.01740671f, 0.01034637f, -0.00189655f, 
    0.01068883f, 0.00592767f, -0.00819603f, 0.01534789f, -0.01906183f, 0.00705617f, -0.01186160f, 0.00415701f, 
    0.01268037f, -0.01597855f, -0.01135389f, -0.03005169f, 0.00040862f, 0.01286090f, 0.02703754f, 0.00001181f, 
    -0.03916665f, -0.04123392f, 0.02641175f, -0.00171714f, -0.00431903f, -0.00390460f, -0.03046470f, -0.02810874f, 
    0.01209908f, 0.00767444f, -0.02755097f, 0.00451381f, 0.00850520f, -0.01742466f, -0.00112538f, 0.00872721f, 
    0.00912436f, 0.02073020f, -0.01033896f, -0.01114891f, 0.00884429f, 0.01166187f, -0.00598135f, -0.00419278f, 
    -0.01713098f, 0.02669170f, -0.00880320f, -0.07730301f, -0.07710379f, -0.07018954f, -0.07723575f, -0.08276925f, 
    -0.06180209f, -0.01574226f, -0.05285085f, -0.07132767f, -0.07266115f, -0.01704627f, -0.03417145f, -0.03878065f, 
    -0.02036329f, -0.03911715f, -0.01484147f, 0.01463541f, -0.00191533f, -0.00785327f, -0.01020597f, 0.06859703f, 
    -0.01255998f, 0.01640336f, 0.01397649f, -0.03521201f, 0.02158142f, 0.03147541f, 0.03484079f, -0.02303365f, 
    0.01973956f, -0.00229439f, 0.01290418f, -0.02818507f, -0.04711919f, -0.02204772f, -0.04826051f, 0.00511665f, 
    -0.04177335f, -0.09351572f, -0.03945458f, -0.08315059f, 0.00406853f, -0.04219255f, -0.08859739f, -0.08360104f, 
    -0.07072937f, -0.03332071f, -0.05279851f, -0.07545032f, -0.04566036f, -0.00143064f, -0.04462375f, 0.00141227f, 
    -0.01712224f, -0.02679174f, -0.03560456f, -0.00003378f, -0.05054872f, -0.03531455f, -0.02562198f, -0.01955597f, 
    -0.01162816f, -0.04111686f, -0.04376372f, -0.00129897f, -0.04678278f, -0.05380152f, -0.02512453f, -0.07107849f, 
    -0.05438806f, -0.00637743f, -0.03825688f, -0.04900304f, -0.00361655f, 0.00915450f, -0.02126667f, 0.01982499f, 
    0.00830172f, 0.04458822f, 0.01859967f, -0.02691073f, 0.03110043f, 0.03031995f, 0.01552281f, -0.01988741f, 
    0.04366668f, -0.02021371f, 0.03027757f, 0.01946295f, -0.01983310f, 0.02712997f, 0.03364119f, 0.01838039f, 
    -0.00843354f, 0.01134287f, 0.02256897f, -0.01786642f, 0.00971598f, -0.01123985f, -0.00090983f, -0.00239207f, 
    -0.02532457f, -0.03386297f, -0.00885059f, -0.03330148f, -0.02090106f, -0.04795278f, -0.03948081f, -0.01009758f, 
    -0.02607848f, -0.02337368f, -0.02396924f, -0.04659047f, 0.00660061f, -0.03827055f, -0.05029994f, 0.01193533f, 
    -0.05810945f, -0.02443442f, -0.00589610f, -0.00408696f, -0.05706710f, -0.05503891f, -0.02930840f, -0.02671439f, 
    -0.02018315f, 0.03789635f, -0.00705291f, 0.00172740f, 0.05651658f, 0.05749821f, -0.00008646f, 0.00277110f, 
    0.07286169f, 0.04406273f, 0.02539432f, 0.01233030f, 0.05570674f, 0.05080024f, 0.05738405f, 0.02081755f, 
    0.01518801f, 0.05038514f, 0.01865076f, 0.02456927f, 0.01165923f, 0.01123286f, 0.04211139f, -0.00058036f, 
    0.01999100f, 0.00740324f, 0.01844565f, 0.03656095f, 0.05025693f, -0.01292582f, -0.00213866f, 0.03815689f, 
    -0.00395474f, 0.04719968f, 0.00997412f, -0.01870971f, -0.01827877f, 0.03383097f, 0.04816760f, 0.00146513f, 
    0.00924738f, -0.01689597f, 0.04645801f, -0.01480365f, -0.01247649f, -0.02085109f, 0.00281229f, -0.03032108f, 
    0.01425798f, -0.01862231f, -0.05290436f, -0.00615618f, -0.06187131f, -0.05556865f, -0.00092191f, -0.04613410f, 
    -0.01487581f, -0.06758770f, -0.03215087f, 0.00871168f, -0.00154933f, -0.02427679f, -0.07606366f, -0.02858170f, 
    -0.01623278f, -0.03810472f, -0.05264343f, -0.08664792f, -0.04706189f, -0.05785912f, -0.04794912f, -0.03094542f, 
    -0.02196145f, -0.04849662f, -0.05703769f, 0.01023389f, 0.01214151f, -0.01269107f, 0.02220790f, 0.01899167f, 
    0.02601764f, 0.02528534f, 0.03237939f, -0.00882292f, -0.00827731f, 0.05270854f, -0.00764679f, 0.05160679f, 
    0.02875772f, 0.01602381f, 0.02802511f, 0.04100995f, 0.03829731f, 0.00022141f, 0.02607007f, -0.00533275f, 
    0.01685341f, -0.02329612f, 0.03137634f, 0.02543857f, -0.00449563f, 0.03564245f, -0.01216303f, -0.03935792f, 
    -0.02013487f, 0.03142999f, 0.01293691f, -0.02883479f, -0.00527762f, -0.01014391f, 0.02806203f, 0.01933932f, 
    -0.01974995f, 0.00775765f, 0.00432564f, 0.02806525f, -0.01825957f, -0.01783030f, 0.01861973f, -0.02073315f, 
    0.01464867f, -0.03704125f, -0.02120913f, 0.01226529f, 0.01041831f, -0.01352549f, -0.03395183f, -0.04772565f, 
    -0.01232275f, -0.03800444f, -0.01511839f, -0.03075239f, -0.00874773f, -0.02050395f, -0.02688713f, 0.04067260f, 
    -0.03865413f, -0.00336800f, -0.04837498f, -0.01938922f, -0.01767627f, -0.01118112f, -0.02944490f, -0.04649381f, 
    -0.05764609f, 0.06391145f, 0.03516862f, -0.01535541f, -0.02136016f, -0.01902312f, -0.00564131f, -0.03226106f, 
    0.01268046f, 0.01041531f, -0.00000785f, -0.02690606f, -0.01741171f, -0.02695352f, -0.04788275f, 0.00848236f, 
    0.00541912f, -0.03377328f, -0.05534871f, -0.01115957f, -0.03718054f, -0.02416572f, -0.02457725f, -0.02510413f, 
    -0.02494550f, -0.04383410f, -0.04349269f, -0.03623703f, -0.03199238f, -0.06229248f, -0.00869644f, 0.03139384f, 
    0.01497576f, -0.04083401f, -0.03939619f, 0.00268313f, -0.03295846f, 0.00712828f, -0.03722841f, -0.01382729f, 
    -0.00999445f, 0.03345861f, -0.02520543f, -0.03277553f, 0.00831730f, 0.01260652f, 0.03220036f, 0.03466968f, 
    -0.02370568f, -0.03751525f, -0.02948367f, 0.01792435f, 0.00737813f, 0.02663099f, -0.01256691f, 0.00408148f, 
    -0.00750470f, -0.01971875f, 0.00407052f, 0.00804268f, -0.02123330f, 0.01777128f, -0.03137665f, -0.01842575f, 
    -0.05192933f, 0.01137980f, -0.01946320f, -0.01842231f, -0.03997110f, -0.04866098f, -0.04652990f, -0.00201336f, 
    -0.01687711f, -0.06263908f, -0.05195938f, -0.03546512f, -0.05715097f, -0.04304321f, -0.02489246f, -0.03225044f, 
    -0.00397318f, 0.00863018f, 0.00797035f, 0.02365839f, 0.04273950f, 0.01369570f, -0.02570538f, 0.01000148f, 
    0.01263861f, 0.03417852f, 0.02967137f, 0.01618324f, 0.04562766f, -0.00923990f, 0.04055271f, -0.00075710f, 
    -0.02381372f, -0.02048364f, 0.04587119f, 0.03962045f, 0.01394485f, 0.00529194f, -0.00389484f, 0.01737272f, 
    0.03559263f, -0.00873706f, -0.02562402f, -0.03812734f, -0.05017371f, -0.01416241f, -0.01996913f, 0.01748334f, 
    0.00842644f, -0.02394210f, -0.00084843f, -0.02516906f, -0.02246290f, 0.01639583f, -0.05573823f, -0.01247179f, 
    -0.02451210f, 0.00566199f, 0.00370856f, -0.01599278f, -0.00426052f, -0.04111683f, -0.04255517f, -0.03765342f, 
    -0.02888658f, -0.00804635f, -0.01581000f, -0.04677983f, -0.04678783f, -0.03123777f, -0.05367135f, -0.02236136f, 
    0.01609368f, -0.02232700f, -0.02793472f, -0.05477450f, -0.01812776f, 0.02113372f, -0.03235482f, -0.03258583f, 
    -0.00218647f, 0.00221037f, 0.00831252f, 0.00813963f, 0.02235341f, 0.01171296f, -0.03670087f, -0.01609537f, 
    0.00768448f, -0.01142604f, -0.03213913f, 0.00413616f, 0.01876185f, 0.01695265f, 0.00429851f, 0.02312923f, 
    -0.01999672f, 0.01721837f, -0.01226486f, 0.03034381f, 0.00256114f, -0.01016303f, -0.01790335f, -0.00822111f, 
    -0.00102097f, -0.01143930f, 0.03702480f, -0.01654951f, -0.01587040f, -0.02079550f, -0.02893441f, 0.00802117f, 
    0.00115246f, -0.01425731f, -0.02171569f, 0.01404878f, 0.00462454f, -0.02325420f, -0.01941347f, -0.00558186f, 
    -0.01843261f, 0.01790856f, -0.01173472f, -0.01280605f, 0.01559691f, -0.01973433f, 0.01642456f, -0.00947075f, 
    -0.04018429f, -0.04084018f, 0.00078008f, 0.00028527f, -0.03104913f, -0.03476427f, -0.00704538f, -0.03993051f, 
    0.02210593f, -0.03968036f, -0.01638538f, -0.02046360f, -0.01816584f, -0.01396906f, -0.01824856f, 0.03356631f, 
    -0.00236769f, 0.02135231f, 0.04379626f, 0.04356260f, 0.01042595f, 0.06012796f, -0.00067587f, 0.01507782f, 
    0.03762749f, 0.02211786f, 0.04063196f, 0.00993383f, 0.00248107f, 0.04907678f, 0.03151851f, -0.00689460f, 
    0.02954570f, 0.04631544f, 0.03851138f, 0.01280533f, -0.00932063f, -0.01414091f, 0.03964751f, -0.00512273f, 
    -0.05615616f, -0.00019963f, -0.04992288f, -0.00154118f, -0.00404611f, -0.02833983f, 0.00420085f, 0.02074281f, 
    0.01201614f, -0.01439858f, -0.01754179f, 0.02506790f, 0.03577697f, -0.02004122f, -0.01079359f, 0.00880324f, 
    0.01044447f, 0.05092677f, 0.04037504f, -0.00975986f, 0.02871377f, 0.01723646f, 0.01447815f, 0.00510802f, 
    0.00051750f, -0.00661770f, 0.02107558f, -0.03298869f, -0.00009721f, 0.02182231f, 0.02401384f, -0.02606481f, 
    -0.04005347f, -0.00073218f, 0.01536907f, 0.02788059f, -0.03326033f, -0.02361898f, 0.01286361f, -0.01027240f, 
    0.00655962f, 0.02133765f, 0.02468158f, 0.01071197f, 0.01414924f, -0.00257635f, 0.01554264f, 0.02774194f, 
    -0.02798210f, -0.03287664f, -0.01902572f, -0.01546847f, 0.00339904f, -0.05461469f, -0.02951100f, 0.00235898f, 
    0.00696510f, -0.01381776f, -0.04329695f, -0.05188215f, -0.00405309f, -0.04270874f, -0.01963829f, -0.00212985f, 
    -0.02626045f, -0.04583513f, -0.04226926f, -0.01211054f, 0.00710271f, 0.00879403f, 0.00231356f, -0.05100208f, 
    0.01375164f, 0.01735415f, 0.02236626f, -0.01871640f, -0.02872935f, -0.00311960f, -0.00769215f, 0.02020291f, 
    0.01539350f, -0.02552333f, -0.03791428f, -0.03985305f, 0.01992209f, -0.01481956f, -0.02920232f, 0.00039987f, 
    0.00427207f, -0.02451548f, 0.02196699f, -0.00840857f, -0.02238214f, 0.01056873f, -0.00918231f, -0.03930935f, 
    0.00706636f, -0.02601347f, 0.01068079f, -0.00892072f, 0.01807879f, -0.01076223f, 0.00371001f, -0.00313370f, 
    0.02355264f, 0.00361792f, 0.00541836f, 0.01079868f, -0.01701454f, -0.01626612f, 0.02734844f, -0.01700894f, 
    0.00600748f, -0.00676992f, -0.01681075f, 0.03171365f, 0.01552339f, 0.02961743f, 0.00194488f, 0.03215998f, 
    0.01205748f, 0.00505849f, 0.00103850f, -0.00270938f, -0.02480124f, -0.01542810f, -0.02683265f, 0.04137187f, 
    0.03488820f, -0.00503320f, 0.01766827f, -0.03894305f, -0.00269611f, 0.03255888f, 0.01187563f, -0.03646094f, 
    -0.04823651f, -0.01573090f, -0.03765325f, -0.01420503f, 0.01310874f, -0.04972677f, 0.01419253f, -0.00973022f, 
    0.00177674f, -0.02231562f, -0.01141379f, 0.00003756f, 0.01069603f, 0.00742057f, -0.03603431f, -0.04199956f, 
    -0.04054611f, 0.00473289f, -0.01054265f, -0.00741751f, -0.03586734f, 0.00219116f, -0.03626027f, -0.01609248f, 
    -0.03354494f, -0.04540601f, -0.02869729f, -0.00212444f, 0.00715114f, -0.01431466f, 0.00912037f, -0.01726949f, 
    -0.04290854f, 0.01503171f, 0.00354286f, 0.02591417f, 0.01418594f, -0.02755842f, -0.02758262f, 0.00253125f, 
    -0.01773139f, -0.00782395f, 0.02913371f, 0.02547630f, 0.01786223f, 0.03874773f, 0.01603103f, 0.01934953f, 
    -0.00539500f, -0.00313903f, -0.00805544f, -0.01325130f, 0.02412795f, 0.01217997f, 0.02361435f, -0.01085151f, 
    -0.04228415f, -0.01669430f, 0.01012360f, -0.01689420f, 0.03450673f, -0.03701273f, -0.01579160f, -0.06699649f, 
    -0.03909194f, 0.02487547f, 0.00171422f, -0.04055818f, -0.04437374f, 0.00041194f, -0.03669085f, 0.03667401f, 
    0.03570683f, -0.06591483f, -0.02884366f, -0.07550968f, -0.00047761f, 0.01447094f, -0.06026847f, -0.08300035f, 
    -0.02251702f, -0.03889792f, -0.06346808f, -0.03328504f, -0.00528486f, 0.00272693f, -0.05544943f, -0.02575875f, 
    -0.04760979f, 0.00624609f, 0.06682555f, 0.08088809f, 0.05151406f, -0.08044504f, -0.03311447f, 0.06351574f, 
    0.05628399f, 0.07853466f, -0.06858435f, -0.00577069f, -0.02265901f, 0.02659941f, 0.04319740f, -0.03166610f, 
    -0.01739651f, -0.04159305f, -0.05913696f, -0.05680022f, -0.01849299f, -0.02202761f, -0.00523722f, 0.00115705f, 
    -0.04312852f, 0.00923068f, -0.00226197f, 0.00215287f, -0.00520929f, -0.00367315f, -0.00919826f, -0.02585157f, 
    0.00731196f, 0.02124906f, -0.03811897f, -0.00993862f, 0.00535896f, -0.01174430f, 0.03098733f, -0.02183989f, 
    0.00116595f, 0.01575319f, -0.00736461f, 0.03124254f, -0.03506558f, -0.02420725f, 0.00498653f, -0.01882993f, 
    0.01679474f, 0.04130928f, -0.00652743f, 0.00474028f, 0.00971279f, -0.03935328f, -0.01771820f, -0.00581798f, 
    -0.04604954f, -0.05208590f, -0.01483979f, -0.03251397f, -0.03579909f, -0.02018614f, 0.00133218f, -0.01850088f, 
    -0.02492965f, 0.01376933f, -0.04024476f, -0.01013702f, -0.05263289f, -0.04351452f, -0.03009702f, -0.01697261f, 
    0.01017765f, -0.00399332f, -0.01714958f, 0.02060536f, 0.05879908f, 0.02944344f, 0.06513838f, 0.08388462f, 
    -0.00510976f, 0.04339690f, -0.00877391f, -0.00564988f, -0.01615557f, -0.06041556f, -0.01893694f, -0.04490926f, 
    -0.03490788f, -0.05476773f, -0.01149660f, -0.05535123f, -0.03761149f, -0.02094310f, -0.03721422f, -0.06661516f, 
    -0.04815757f, -0.08724603f, -0.05252814f, -0.01534758f, 0.03451760f, 0.02622866f, 0.06757886f, 0.02932769f, 
    0.00412564f, 0.02415471f, 0.09187309f, 0.06594204f, 0.00473058f, -0.00306927f, 0.00075816f, -0.03936561f, 
    0.03491085f, -0.00898360f, -0.05982503f, 0.01688937f, -0.02171259f, 0.00477684f, -0.03066407f, -0.03175322f, 
    0.00648483f, -0.05078702f, -0.02663256f, -0.02445406f, -0.03669011f, -0.00262813f, 0.00120026f, 0.00999565f, 
    -0.00432216f, -0.00823198f, -0.00418489f, 0.00831513f, -0.01721788f, 0.00357140f, -0.00047989f, -0.03994852f, 
    -0.02022563f, 0.00647159f, -0.04603390f, -0.03614889f, -0.03735944f, -0.04360530f, -0.02666417f, -0.02959216f, 
    -0.03623622f, -0.00745945f, -0.00307989f, -0.03468592f, -0.02545274f, 0.00549583f, 0.00253086f, 0.01525517f, 
    -0.03152982f, -0.03635810f, 0.02474188f, -0.02061639f, 0.00080440f, 0.02114949f, 0.00470422f, -0.03134222f, 
    0.01605187f, 0.00621144f, -0.00309097f, -0.01474797f, -0.00181012f, -0.00905021f, 0.02376858f, -0.00374215f, 
    -0.02208385f, -0.01050207f, -0.00029409f, -0.00170017f, -0.00348518f, 0.02172718f, -0.00240914f, -0.01365439f, 
    -0.02288300f, -0.02386812f, -0.05154445f, 0.01179035f, -0.02542396f, 0.00830417f, -0.01232672f, -0.02831935f, 
    0.01096890f, -0.02637092f, -0.02441843f, -0.04733858f, -0.03165516f, -0.00641444f, -0.00117766f, -0.03157566f, 
    0.01527672f, -0.03477501f, -0.05210059f, -0.02823964f, 0.00749916f, -0.04183314f, -0.02772683f, -0.00783298f, 
    0.01387783f, -0.03879036f, 0.01194045f, -0.04190160f, 0.00052416f, 0.02472408f, 0.01407447f, -0.01506245f, 
    -0.03664358f, -0.01998137f, -0.00892007f, 0.01833460f, -0.02879397f, 0.02062078f, -0.00780833f, -0.02668662f, 
    0.00650829f, 0.02177907f, 0.00588274f, 0.00972162f, 0.04490989f, 0.03633472f, 0.00677446f, -0.02453767f, 
    0.02260021f, 0.01919137f, -0.02122020f, -0.03052367f, 0.00346745f, -0.03898737f, -0.02800317f, -0.03627425f, 
    0.00561587f, -0.01416237f, 0.00644342f, -0.03403806f, -0.03775258f, -0.04049053f, -0.00133180f, -0.02013405f, 
    -0.02933712f, 0.01557760f, -0.02091942f, -0.00898054f, 0.00713799f, -0.00163094f, 0.00588638f, -0.00960227f, 
    -0.02207633f, 0.02555033f, 0.00814129f, -0.00370437f, 0.00428983f, 0.06168623f, 0.07677904f, -0.00881576f, 
    -0.06299907f, -0.02740199f, 0.02915177f, 0.01107713f, -0.03638627f, -0.08356566f, -0.08240988f, -0.05226878f, 
    -0.03879203f, -0.05809649f, -0.07563582f, -0.09895087f, -0.10014534f, -0.07749739f, -0.07998365f, -0.05261163f, 
    -0.04970483f, -0.09759083f, -0.10697573f, 0.00016921f, -0.00062607f, -0.04915684f, -0.02425856f, -0.03263986f, 
    -0.04563222f, -0.01852206f, -0.01222303f, -0.06240201f, -0.00508896f, -0.03464844f, -0.01263293f, -0.01067064f, 
    -0.02727712f, -0.06161281f, -0.04147492f, 0.00377017f, 0.01503584f, -0.04411611f, -0.05886822f, 0.03880074f, 
    0.03675321f, 0.04731853f, -0.01712277f, 0.02345189f, 0.01132954f, -0.02080959f, -0.01921884f, -0.00543819f, 
    0.01437313f, 0.01539545f, -0.02599465f, -0.02586497f, 0.02916460f, -0.00392235f, 0.01376062f, -0.00036139f, 
    -0.01093598f, -0.02593362f, -0.00331740f, -0.01002860f, -0.03169418f, 0.01261616f, 0.01083510f, -0.02405763f, 
    0.00354228f, -0.01645487f, 0.02557153f, -0.02906843f, 0.01958036f, -0.01286764f, -0.00790588f, -0.03616822f, 
    -0.02510826f, -0.02913133f, -0.03869514f, -0.00405449f, 0.00327362f, -0.06012547f, -0.04093059f, -0.01708159f, 
    0.00490525f, -0.01801609f, -0.01216207f, -0.04835937f, -0.07794914f, -0.01635782f, -0.05868693f, 0.02225350f, 
    -0.02896088f, -0.09465541f, -0.12650694f, -0.08993147f, -0.05652221f, 0.03530425f, -0.01763355f, -0.01003237f, 
    -0.06365953f, -0.01551517f, -0.06203827f, -0.03381930f, -0.01467935f, -0.04690664f, -0.06655768f, -0.04552993f, 
    -0.03300808f, -0.00764630f, -0.01318083f, -0.06058590f, -0.02613113f, -0.01254544f, -0.01481584f, -0.05517137f, 
    -0.02191328f, -0.00879282f, -0.00979005f, -0.00797774f, -0.00229439f, -0.00507371f, -0.02516278f, 0.02028139f, 
    -0.01184992f, -0.03105017f, -0.04159661f, -0.02523094f, -0.01781229f, -0.03455640f, -0.02762521f, -0.00314584f, 
    0.02056789f, -0.01057353f, 0.01548862f, -0.04118144f, -0.03130448f, -0.03127750f, -0.01500590f, -0.01518444f, 
    -0.01441874f, -0.02795455f, -0.03536611f, -0.00891280f, -0.02401398f, 0.01606314f, -0.04402743f, 0.01383037f, 
    -0.03174992f, -0.01966581f, -0.03887364f, -0.00407651f, -0.05827603f, 0.01280065f, -0.01188556f, -0.05373752f, 
    -0.03697705f, -0.03629891f, -0.04005343f, -0.02572965f, -0.03221350f, -0.06442527f, -0.05906596f, -0.03618930f, 
    -0.02807879f, -0.01277427f, -0.03634192f, 0.00033607f, -0.01242663f, -0.01558200f, 0.01270689f, -0.00497873f, 
    -0.05079869f, -0.05763021f, -0.05406235f, 0.00565312f, -0.00667079f, -0.05063258f, -0.02148434f, 0.01497941f, 
    -0.04737766f, -0.05245418f, -0.05497414f, 0.00929460f, -0.02241257f, 0.01459497f, -0.05942979f, -0.04356068f, 
    0.02182996f, -0.02251807f, -0.04747882f, -0.03495829f, -0.02078074f, 0.00495363f, -0.02937167f, 0.00125439f, 
    -0.04681259f, -0.01144886f, -0.03452061f, -0.01829589f, 0.00085532f, -0.02214775f, -0.01489540f, -0.00864509f, 
    0.01899436f, -0.03365125f, -0.05085094f, -0.01493506f, 0.01965462f, 0.00135740f, 0.01690907f, -0.03945846f, 
    0.00060424f, -0.00659185f, 0.00974909f, -0.04231841f, -0.03038566f, -0.04574255f, -0.00421045f, -0.01395148f, 
    -0.00706682f, -0.01129544f, -0.01921169f, -0.03520271f, 0.00863840f, 0.02216725f, -0.01378330f, 0.02971425f, 
    -0.02469743f, -0.04682594f, -0.00976873f, -0.02740845f, -0.03835729f, 0.00846624f, -0.01353030f, 0.00382482f, 
    0.01682233f, -0.01877639f, 0.00768114f, -0.01740883f, 0.00575638f, -0.01976575f, 0.00217438f, -0.02961396f, 
    -0.03494328f, -0.04000579f, 0.00079348f, 0.01864713f, 0.01751980f, 0.02921929f, -0.01769462f, -0.01723580f, 
    -0.00138681f, 0.02226883f, 0.01935262f, 0.04122686f, -0.01163096f, 0.00494110f, 0.01812332f, 0.01613244f, 
    0.01183015f, -0.00242682f, -0.00233883f, -0.02514679f, 0.00551996f, 0.01128716f, -0.00511533f, -0.02158567f, 
    -0.02430836f, 0.01849170f, 0.00533331f, 0.01254911f, 0.01103404f, 0.02004908f, -0.04004107f, -0.00563250f, 
    0.02911975f, 0.00677746f, -0.02759800f, 0.00887466f, 0.02513666f, -0.02480995f, -0.03911683f, -0.04341772f, 
    0.00952256f, 0.00910654f, 0.01965088f, 0.01569397f, -0.00730786f, -0.00839021f, 0.01035238f, -0.04170673f, 
    0.00519955f, 0.00283980f, -0.04620101f, 0.00942731f, -0.03712962f, 0.01989014f, -0.02157749f, -0.01437076f, 
    -0.01669659f, -0.02056777f, -0.05623860f, 0.00963468f, 0.01823919f, -0.03564250f, -0.02544237f, -0.03029143f, 
    -0.00509402f, -0.02203567f, 0.01121609f, -0.01791650f, -0.01607418f, 0.00510413f, 0.02660581f, -0.01841746f, 
    -0.01444380f, -0.04998142f, -0.01111135f, -0.01204484f, -0.01790487f, 0.02749590f, -0.01571721f, -0.05265594f, 
    -0.01304967f, -0.00030189f, 0.00307796f, -0.03553586f, -0.06977442f, -0.04134961f, 0.01055640f, -0.01080500f, 
    -0.00626840f, -0.02725785f, -0.05937568f, -0.00728075f, -0.03185941f, -0.05163226f, -0.06401022f, 0.00374436f, 
    -0.00628590f, -0.03143820f, -0.00311860f, -0.01560138f, -0.02557971f, 0.00975952f, -0.04120636f, -0.04302402f, 
    -0.05146499f, -0.05245886f, -0.03854406f, -0.01805936f, -0.05441987f, 0.04817698f, 0.05461948f, 0.02024562f, 
    0.00701203f, -0.02581882f, 0.02346374f, 0.01330682f, 0.04679466f, 0.04203381f, 0.04088612f, 0.03479147f, 
    0.03842637f, 0.00268071f, 0.04043672f, 0.00695450f, -0.01692891f, -0.04037348f, 0.01192019f, -0.01681733f, 
    -0.02984502f, 0.00735630f, -0.00641715f, 0.01788130f, 0.01819076f, 0.00361392f, -0.00513734f, 0.03463463f, 
    0.02239982f, 0.02803737f, -0.00562429f, 0.02209853f, 0.03136726f, 0.06510700f, 0.03012169f, 0.04881094f, 
    -0.00460356f, -0.04098388f, -0.03194763f, 0.00677350f, -0.00713996f, -0.05334768f, -0.01429334f, -0.02462876f, 
    0.00580352f, -0.06216744f, -0.06189143f, -0.06893226f, -0.07034808f, -0.04626040f, -0.00923429f, -0.02191524f, 
    0.00976804f, 0.05640265f, 0.00159698f, -0.00914803f, 0.08852950f, 0.03796206f, 0.05998550f, 0.04058076f, 
    0.00854781f, 0.06380598f, 0.00374642f, 0.01344083f, 0.04007979f, 0.02068797f, 0.02021687f, -0.01941829f, 
    -0.02447302f, -0.04907574f, -0.05289880f, -0.09310372f, -0.06597681f, -0.05881876f, -0.04891555f, -0.03488608f, 
    -0.01769386f, 0.00967023f, 0.03772665f, 0.04411301f, 0.02730757f, 0.04381180f, 0.05651860f, 0.04162785f, 
    0.05111178f, 0.05737577f, 0.06635259f, 0.08961925f, 0.01300478f, -0.00926218f, -0.01511361f, 0.02490825f, 
    0.01785873f, -0.03859986f, -0.05769973f, -0.00113298f, 0.00756212f, 0.03619790f, 0.00268274f, -0.00625534f, 
    0.01234055f, -0.01938519f, 0.00173284f, -0.01900616f, 0.00116597f, -0.01115657f, 0.02748682f, -0.02757847f, 
    0.00021033f, -0.02242246f, -0.02318422f, -0.01839298f, 0.02792983f, -0.00976754f, -0.00772709f, 0.02116007f, 
    0.04354024f, 0.02962691f, 0.02769332f, 0.03065413f, 0.00575860f, -0.12265544f, -0.12400898f, -0.07881718f, 
    -0.04754649f, -0.04805508f, -0.03281968f, -0.07322454f, -0.01979370f, -0.01109228f, -0.05412594f, 0.01023429f, 
    0.05069921f, 0.05189409f, 0.04491670f, 0.03921814f, 0.06804026f, 0.06634323f, 0.04001024f, 0.04433278f, 
    0.02632891f, 0.01381605f, 0.02650090f, 0.06173488f, 0.04216371f, 0.02076747f, 0.01478934f, -0.00412143f, 
    -0.02078757f, -0.02829498f, -0.00394924f, 0.01735617f, 0.02538154f, -0.00277183f, 0.01166525f, -0.00576826f, 
    -0.06896590f, -0.01166081f, -0.00453745f, -0.00956518f, -0.06400308f, -0.01773478f, -0.04577003f, -0.03555305f, 
    0.01040118f, -0.03081961f, 0.01164753f, 0.00321096f, 0.00733684f, -0.02490613f, -0.02350869f, 0.01293609f, 
    -0.00543793f, -0.01454136f, 0.00940887f, -0.01275730f, -0.11764413f, -0.13678299f, -0.12769488f, -0.12897046f, 
    -0.10881592f, -0.04805844f, -0.02940544f, 0.00189555f, -0.01933629f, -0.03386245f, 0.03089081f, 0.02694891f, 
    0.03772842f, 0.01582477f, 0.04145977f, 0.00829768f, 0.04818264f, -0.02341928f, -0.04283229f, 0.01227573f, 
    0.19546673f, 0.17909910f, 0.19677489f, 0.19554739f, 0.21178755f, 0.09779627f, 0.04904917f, 0.08610040f, 
    0.11310200f, 0.10657620f, -0.03909979f, -0.06017970f, -0.05510461f, -0.04105354f, -0.04812402f, 0.00982458f, 
    0.03472222f, 0.02203531f, 0.00894337f, 0.02529217f, 0.10887105f, 0.08806284f, 0.03464603f, 0.04968642f, 
    0.08952708f, -0.02527933f, -0.00468631f, -0.01844304f, -0.01490035f, 0.01307871f, 0.01096677f, 0.04419081f, 
    0.02491584f, -0.01739710f, -0.02463411f, 0.00489135f, 0.01458551f, -0.00410413f, -0.01302957f, -0.01665061f, 
    0.02620962f, -0.03216601f, 0.02336788f, 0.01027334f, 0.04357878f, 0.01856637f, 0.01554028f, 0.00431057f, 
    0.02567819f, -0.01308415f, -0.05474770f, 0.00275109f, 0.02110443f, -0.05628065f, -0.01471202f, -0.03587815f, 
    -0.02320581f, -0.00872510f, 0.00789757f, -0.02418167f, 0.03143306f, 0.03305820f, 0.04399821f, -0.00671756f, 
    -0.02625323f, 0.00787054f, 0.05930485f, 0.00250672f, -0.00952819f, 0.03503515f, -0.00198335f, 0.00858059f, 
    0.02375688f, 0.01968164f, -0.00059336f, 0.00571327f, 0.03969238f, 0.00165727f, 0.01338794f, 0.00830525f, 
    0.03599336f, 0.05337018f, 0.02636036f, -0.02312914f, -0.00722997f, 0.05040043f, 0.03653462f, 0.03255549f, 
    0.00902407f, -0.00253885f, -0.02663956f, -0.02143068f, 0.00730971f, 0.00094233f, 0.02610725f, 0.04468084f, 
    0.02750229f, -0.02542653f, -0.02874244f, -0.01410590f, 0.01335010f, -0.00199318f, -0.00800634f, -0.04396902f, 
    -0.06101013f, 0.02078465f, 0.02339502f, -0.01497841f, 0.01828932f, -0.00760634f, 0.02616999f, 0.00012403f, 
    -0.04298475f, 0.02725819f, 0.00105199f, 0.01104387f, -0.06826886f, -0.05418557f, -0.01785342f, -0.07861800f, 
    0.02521347f, -0.01482221f, -0.00150668f, 0.02610214f, -0.06378909f, -0.00824564f, -0.02205481f, -0.01198146f, 
    0.00636911f, -0.04368718f, 0.03920809f, -0.01072920f, 0.03032658f, -0.00657808f, 0.01570528f, -0.02006735f, 
    0.00560333f, 0.03432544f, -0.00863275f, -0.03658989f, -0.05104961f, -0.05148103f, -0.04549932f, -0.02935778f, 
    -0.03057855f, -0.04641667f, -0.06419820f, -0.01329714f, -0.06111635f, -0.02317046f, -0.06711551f, -0.06437945f, 
    0.00407823f, 0.00057257f, -0.03357674f, -0.04191195f, -0.00516899f, -0.03440395f, -0.03371625f, -0.02178316f, 
    -0.02639464f, 0.01563849f, 0.05000490f, 0.01323176f, -0.01754469f, 0.02888513f, -0.01023452f, -0.00390546f, 
    -0.00555369f, 0.03786036f, 0.02260338f, 0.03993871f, 0.00258838f, 0.01612658f, 0.03496848f, -0.07466150f, 
    -0.03043427f, -0.04773589f, -0.06316724f, -0.04965330f, -0.02189382f, -0.01166194f, 0.02615357f, 0.03641247f, 
    -0.00741858f, 0.00116741f, 0.02885319f, 0.04691797f, 0.03417980f, 0.04892329f, -0.00611007f, 0.00711309f, 
    -0.01169599f, 0.02152633f, -0.01627849f, -0.03477950f, -0.01266657f, -0.04733618f, -0.02154757f, -0.03056999f, 
    -0.09729555f, -0.07799163f, -0.05023576f, -0.04383452f, -0.04521611f, 0.01731370f, -0.02790888f, 0.04873426f, 
    0.02268031f, 0.00564888f, 0.05836730f, 0.03700798f, 0.06485821f, 0.04054934f, 0.00692728f, 0.07139666f, 
    0.02897166f, 0.01549258f, 0.02664689f, 0.01102082f, 0.02713461f, 0.01072980f, -0.00930092f, -0.00302359f, 
    0.03346531f, -0.01763710f, -0.08184416f, -0.05321660f, -0.06125096f, -0.01718027f, 0.02976698f, 0.02429814f, 
    0.06372964f, 0.06018244f, 0.02546352f, 0.03243957f, 0.04641389f, 0.04235546f, 0.01937011f, 0.06299920f, 
    0.05275071f, 0.04260752f, 0.01685900f, 0.00898311f, 0.00364369f, 0.00864570f, 0.00233745f, -0.03626381f, 
    -0.03126284f, -0.02397338f, 0.07953177f, 0.02542091f, 0.02975081f, 0.04953735f, 0.00179504f, -0.00035544f, 
    -0.01596873f, -0.00259261f, -0.02486853f, -0.06243484f, -0.03196847f, -0.00286197f, -0.00623295f, -0.07215548f, 
    -0.06902225f, 0.01476947f, -0.04545529f, -0.08650601f, -0.07772564f, -0.03735887f, -0.02477027f, -0.05201831f, 
    -0.05619227f, -0.03058247f, -0.04313036f, -0.11599450f, -0.09775984f, -0.09686712f, -0.05488035f, -0.06748674f, 
    -0.00535632f, -0.05020183f, 0.01892502f, -0.04627514f, 0.00815024f, 0.00545708f, 0.01321425f, 0.01209093f, 
    0.05463201f, -0.00817725f, 0.02781567f, 0.06181759f, 0.08342834f, 0.01496134f, 0.02309517f, 0.05231141f, 
    0.03550501f, 0.02854051f, 0.02242912f, 0.00759409f, 0.00517224f, 0.02045209f, 0.01202021f, 0.01153057f, 
    0.00091750f, -0.00792368f, 0.02527897f, 0.02510367f, 0.01125580f, 0.00053503f, -0.03043938f, 0.00548492f, 
    -0.01349824f, 0.01530502f, 0.00402911f, -0.03469267f, 0.04263479f, 0.04935773f, 0.02305871f, 0.03120307f, 
    -0.02664644f, 0.02332347f, 0.02323654f, 0.04650060f, 0.00570682f, 0.11039173f, 0.05589805f, 0.05485313f, 
    -0.01685987f, -0.08392759f, 0.01781270f, -0.00192359f, 0.02013737f, 0.03024103f, -0.03275434f, -0.06394047f, 
    -0.09094994f, 0.00138702f, 0.00441550f, -0.01743084f, -0.06443176f, -0.08553567f, -0.06397309f, -0.00806287f, 
    -0.05889660f, -0.04876661f, -0.04607420f, -0.04408932f, -0.08361936f, -0.10216889f, 0.00554687f, 0.01205405f, 
    -0.01649042f, 0.00142478f, 0.00128495f, -0.04606154f, -0.02980790f, -0.03600053f, -0.02358399f, -0.04647132f, 
    -0.06908172f, -0.02535336f, -0.06302588f, -0.05626028f, -0.06510556f, -0.02757476f, -0.04796994f, -0.00226171f, 
    -0.00415892f, -0.04817908f, -0.03531774f, 0.00501187f, -0.05154409f, -0.04785719f, -0.00924571f, -0.06636149f, 
    -0.06013674f, -0.02386444f, -0.06523400f, -0.03511370f, -0.06429552f, -0.01904305f, -0.01934948f, 0.00994246f, 
    0.00675538f, 0.03645775f, -0.00449409f, 0.04136841f, 0.02379300f, 0.01271962f, 0.02481435f, -0.00389309f, 
    0.03777038f, 0.05137349f, 0.03583575f, 0.02034404f, 0.04449929f, 0.03049652f, -0.00737165f, -0.03176926f, 
    -0.04132228f, -0.01855362f, -0.03814146f, -0.02698945f, -0.05723088f, 0.02981623f, -0.01621117f, 0.03917499f, 
    0.02127366f, -0.02604435f, 0.02373448f, 0.01990354f, 0.00869446f, 0.00862741f, 0.01713478f, -0.02158930f, 
    -0.03420147f, -0.02725993f, -0.01879512f, -0.03428125f, -0.00893466f, -0.04247189f, -0.03496532f, -0.05230558f, 
    0.00325416f, -0.08604898f, -0.01502271f, -0.03672267f, -0.03074503f, -0.03099573f, -0.07766870f, -0.01958815f, 
    -0.02058443f, -0.02464062f, -0.01604061f, 0.02832389f, -0.00972734f, -0.02068618f, 0.00172560f, 0.00644577f, 
    0.04023644f, 0.03979742f, 0.02688237f, 0.03476483f, -0.01958606f, -0.00149179f, 0.03662648f, 0.00560944f, 
    0.03342358f, 0.01628995f, 0.02264322f, -0.01340657f, -0.02523349f, -0.02782927f, -0.05675162f, 0.03217797f, 
    -0.00185420f, 0.00396479f, 0.02235949f, 0.00620749f, 0.00631647f, 0.01310842f, 0.01628537f, -0.01586681f, 
    0.02541737f, 0.02642877f, 0.02692850f, -0.01801186f, -0.02101478f, -0.00557096f, -0.04521847f, -0.03299737f, 
    -0.02225816f, 0.00164892f, -0.00255209f, 0.04848695f, 0.11416929f, 0.13775958f, 0.06897785f, 0.04421650f, 
    0.17416354f, 0.17452027f, 0.15623316f, 0.16094553f, 0.12349928f, 0.13533381f, 0.09731641f, 0.12894452f, 
    0.07499374f, 0.11245172f, 0.12295238f, 0.02497832f, 0.05653086f, 0.00957080f, 0.01905176f, -0.00121483f, 
    0.00600539f, -0.04972606f, -0.00151862f, -0.02566057f, 0.00168165f, 0.02145025f, 0.02576741f, 0.02854282f, 
    0.02731927f, 0.00216099f, 0.00460701f, -0.00076747f, -0.02048531f, -0.00303224f, 0.00211260f, 0.00025127f, 
    -0.00602302f, 0.00760702f, 0.01211504f, -0.02364937f, -0.01460408f, -0.03800104f, -0.05103780f, 0.02623404f, 
    -0.01842297f, -0.01153635f, -0.03605191f, -0.00436620f, -0.01030896f, -0.04201898f, 0.01741437f, 0.01430970f, 
    0.02039002f, 0.02117067f, -0.01640863f, -0.04148130f, 0.00328691f, -0.00452289f, -0.02186838f, 0.02617751f, 
    -0.02762020f, -0.00090521f, -0.02621965f, 0.02197686f, 0.00276063f, -0.01378052f, 0.00206561f, 0.00470760f, 
    0.02102581f, -0.00661055f, 0.01373016f, 0.01249695f, 0.03617923f, -0.01920856f, -0.04042147f, -0.02677607f, 
    -0.05081338f, -0.03245110f, -0.01358254f, 0.00831279f, 0.01173982f, 0.03988568f, -0.03201543f, -0.01027369f, 
    0.05206660f, 0.03103146f, 0.00972897f, -0.01891484f, 0.02506751f, 0.00478434f, 0.01031182f, 0.04800561f, 
    0.00217306f, -0.03004759f, -0.00792298f, -0.00309312f, 0.00156888f, -0.00745205f, 0.01392320f, -0.00473162f, 
    -0.01626367f, -0.01934442f, -0.05174785f, -0.02594703f, -0.05550289f, -0.03073090f, -0.03130702f, -0.07340488f, 
    -0.02781446f, -0.03532308f, -0.03234146f, -0.03320035f, -0.03326223f, -0.07833531f, -0.00653529f, 0.00339712f, 
    -0.05715884f, 0.00250204f, -0.06254826f, -0.01659561f, -0.03483699f, -0.02349085f, -0.02808292f, -0.02782585f, 
    -0.02641880f, -0.00912938f, -0.05889547f, -0.05804833f, -0.03698734f, -0.02736065f, -0.06166779f, -0.05487807f, 
    -0.05983912f, 0.00120703f, -0.05134473f, -0.06630301f, -0.00318144f, -0.04879341f, -0.04345319f, -0.01323895f, 
    -0.03814624f, -0.02898611f, -0.05832212f, -0.00388179f, -0.02592957f, -0.01404171f, -0.06696470f, -0.05778444f, 
    0.00707718f, -0.03512462f, -0.05790346f, -0.00929270f, 0.00439803f, -0.02158402f, -0.03599856f, -0.06364807f, 
    -0.01326653f, 0.00360982f, 0.00258376f, -0.02699261f, -0.05245448f, -0.03595813f, -0.02613110f, 0.00881695f, 
    -0.05517712f, -0.05579020f, -0.02613963f, -0.03076892f, -0.01463402f, -0.04589805f, -0.04672874f, -0.03876845f, 
    0.01108656f, -0.00241519f, 0.00545741f, 0.00924717f, -0.04223964f, -0.00976246f, 0.01776909f, -0.02903648f, 
    -0.01726699f, -0.02226512f, -0.01209369f, 0.02680118f, -0.02401213f, 0.02026645f, -0.00273701f, -0.02344197f, 
    0.01218812f, -0.00248398f, -0.02174687f, 0.00054629f, -0.04044655f, -0.01067153f, -0.04025313f, 0.00916837f, 
    -0.03295685f, -0.02113921f, -0.02691390f, -0.01469068f, -0.04442607f, -0.01339852f, -0.00729997f, -0.02114747f, 
    -0.02314344f, -0.05753294f, -0.03464298f, -0.02439932f, -0.01582181f, -0.05465147f, -0.01164206f, -0.02429669f, 
    -0.01423528f, -0.05597158f, -0.05002908f, -0.01783457f, -0.07158878f, -0.02481191f, -0.03920005f, -0.03439827f, 
    -0.04140217f, -0.01728365f, -0.04756612f, -0.03874497f, 0.01472166f, -0.00198984f, 0.00149663f, 0.01729153f, 
    -0.01952804f, 0.03035143f, -0.01292981f, -0.01205483f, -0.01838022f, 0.00007765f, 0.01946968f, -0.02390202f, 
    -0.02592214f, -0.03083081f, 0.02936219f, 0.00445443f, 0.02031801f, -0.01365519f, 0.00228334f, -0.01684057f, 
    -0.02657581f, -0.01641546f, 0.03590593f, -0.02846851f, -0.00293910f, 0.00756004f, -0.02567982f, -0.04084973f, 
    -0.00632087f, -0.02334474f, -0.02314420f, -0.02646426f, 0.00079909f, -0.01247647f, 0.00399609f, -0.02475813f, 
    0.00152379f, -0.00004424f, 0.01463457f, -0.02103068f, -0.01437213f, -0.05637131f, -0.04170066f, -0.04427341f, 
    -0.02734617f, -0.05272100f, 0.00450959f, -0.01857515f, -0.02510712f, -0.03278826f, 0.03255120f, 0.00095526f, 
    -0.01705470f, -0.04267686f, -0.02011066f, 0.01449974f, 0.00619120f, 0.01096338f, -0.03701279f, -0.02313191f, 
    -0.01027676f, 0.03157143f, -0.03733905f, -0.03696480f, -0.00305220f, 0.00536958f, -0.00884196f, -0.01811459f, 
    -0.03390789f, -0.00866811f, -0.02753362f, -0.03515354f, -0.03228707f, -0.02084657f, 0.03480594f, 0.04351423f, 
    0.01923740f, -0.02745439f, -0.01345128f, -0.00629113f, -0.00875771f, 0.01720589f, 0.02588049f, 0.05919793f, 
    0.02565228f, -0.00031308f, -0.00829202f, -0.01529978f, -0.02546020f, -0.00133344f, 0.00722293f, 0.00303220f, 
    -0.05416255f, -0.01239178f, -0.04300861f, -0.06182487f, -0.04434571f, 0.00796562f, -0.00030755f, -0.02820978f, 
    0.05432796f, 0.00970783f, 0.03547963f, -0.03704711f, -0.00211240f, 0.04121580f, 0.03135116f, 0.00109827f, 
    -0.03462122f, -0.01619428f, -0.00991392f, -0.00913848f, 0.00896733f, -0.03808174f, -0.03820985f, 0.03270633f, 
    0.01443146f, 0.00589947f, 0.02229768f, -0.03211205f, -0.01401963f, -0.00707390f, -0.03258669f, -0.03360059f, 
    -0.02335407f, 0.01078233f, -0.00598266f, 0.02142139f, -0.01668072f, 0.02410693f, -0.02991099f, -0.00611940f, 
    0.03556533f, 0.01003185f, 0.01404619f, 0.02179933f, 0.00702006f, 0.01251061f, 0.02712086f, 0.04038512f, 
    -0.02051015f, -0.01740165f, -0.01246236f, -0.00241070f, 0.00015105f, -0.01924300f, 0.02046168f, 0.02244607f, 
    0.03040845f, 0.03215253f, -0.06161839f, 0.00593200f, -0.04773040f, -0.00507902f, -0.05044330f, -0.07335004f, 
    -0.03125896f, -0.01845082f, -0.01909005f, -0.00589399f, -0.03146739f, -0.05672247f, -0.06226600f, -0.04960187f, 
    0.00797590f, -0.01945824f, -0.01276861f, -0.00601651f, -0.02900658f, -0.00308377f, -0.03672552f, -0.05788219f, 
    -0.00743359f, -0.04784344f, 0.00076240f, 0.01904301f, -0.01546114f, -0.03035383f, -0.00557246f, -0.05472573f, 
    -0.01815753f, 0.00497933f, -0.01178266f, -0.01085942f, -0.05293916f, -0.01652911f, -0.02547677f, -0.00932641f, 
    -0.02985652f, -0.03710816f, -0.00521111f, -0.03833427f, -0.02842714f, -0.04883822f, -0.01283311f, 0.00192395f, 
    0.00590037f, -0.01059125f, -0.00047122f, 0.00843385f, 0.04047249f, -0.03684520f, -0.01579291f, 0.00561470f, 
    0.02003854f, 0.00450304f, 0.01248698f, -0.02459807f, -0.01124196f, 0.01841269f, 0.01337960f, 0.01654259f, 
    0.00538156f, 0.00662461f, 0.00412525f, 0.00011622f, 0.04966030f, -0.00186596f, -0.01535108f, 0.00382731f, 
    -0.01112014f, 0.05178102f, 0.03813792f, 0.02124915f, 0.03229366f, -0.03010031f, -0.01965592f, 0.00817529f, 
    -0.02629958f, 0.02566159f, -0.04770041f, -0.08919998f, -0.03829067f, 0.01451226f, 0.01220822f, -0.07967613f, 
    -0.06110544f, -0.02751265f, 0.00408300f, 0.02255033f, -0.06582702f, -0.04347890f, -0.03885454f, -0.00522362f, 
    0.00816751f, -0.03930325f, -0.02606289f, -0.02259096f, -0.00997953f, -0.03363322f, -0.03593297f, -0.05239723f, 
    -0.00695826f, 0.00457189f, -0.01317560f, -0.03211070f, -0.02171640f, 0.00731379f, -0.03573663f, -0.02785617f, 
    -0.03926823f, -0.04322172f, -0.03291775f, -0.04892077f, -0.05703533f, -0.03517903f, -0.04855708f, -0.05439970f, 
    -0.01632853f, 0.00927811f, -0.00632641f, -0.01960698f, -0.00083137f, -0.05183898f, -0.06288202f, -0.00636339f, 
    -0.01690099f, 0.01955568f, -0.00850564f, 0.01490687f, -0.05362572f, 0.00610930f, 0.01865905f, 0.02568095f, 
    0.02357261f, -0.02954663f, -0.00001095f, 0.03525457f, 0.02687358f, 0.00418707f, -0.06312401f, -0.01968234f, 
    0.00647536f, -0.03051640f, -0.02593392f, -0.00298353f, -0.01753692f, -0.00630836f, 0.03668478f, 0.04174018f, 
    -0.02897244f, -0.04198597f, 0.00900346f, -0.02792649f, 0.03641151f, -0.03376993f, -0.03276282f, -0.01118913f, 
    -0.03654590f, -0.01542282f, -0.01262708f, -0.03407640f, -0.01038104f, -0.03979301f, -0.04533196f, -0.06087551f, 
    -0.04873857f, -0.03638567f, -0.03979502f, -0.01344449f, -0.06509861f, -0.05513821f, -0.07201975f, -0.03665259f, 
    -0.04777338f, -0.00530482f, 0.01292200f, -0.02454915f, -0.00315517f, 0.02530267f, -0.01243899f, 0.00285891f, 
    -0.03442345f, -0.03636899f, 0.01157114f, -0.03184766f, -0.02746748f, -0.06446254f, -0.04106564f, -0.03215926f, 
    -0.06524926f, -0.02832023f, -0.06874804f, -0.02853480f, -0.02769561f, -0.05464288f, -0.03964985f, 0.00099595f, 
    -0.01370571f, -0.00955564f, -0.00382108f, -0.02141964f, -0.03735968f, -0.04669080f, 0.01306258f, -0.04351780f, 
    -0.03720751f, -0.01598363f, 0.00257263f, -0.02517735f, -0.06389803f, -0.04142220f, 0.01123127f, 0.01621341f, 
    0.04130402f, 0.00484308f, -0.01261250f, 0.01473188f, 0.02771939f, 0.01643960f, -0.03333146f, -0.00654859f, 
    0.02095708f, -0.00384873f, 0.01276671f, -0.00221608f, -0.03421175f, -0.02155630f, -0.00597812f, -0.02284308f, 
    -0.03151670f, -0.04893335f, 0.01764520f, -0.00572064f, -0.02510091f, -0.01510620f, -0.02718200f, 0.00899703f, 
    -0.02813685f, -0.00508074f, -0.07088926f, -0.02093597f, -0.03390900f, -0.01578832f, -0.04363192f, -0.02042146f, 
    0.00260661f, -0.02596263f, -0.03406746f, -0.02144983f, 0.00921481f, -0.00178569f, -0.00975929f, 0.00813615f, 
    -0.02947874f, 0.02867027f, -0.02040864f, 0.01435043f, 0.02097604f, -0.02834691f, -0.01857347f, -0.02916695f, 
    0.02109055f, 0.02655768f, 0.01266467f, 0.01276306f, -0.00258478f, 0.00864809f, -0.00105890f, 0.00960225f, 
    -0.02874600f, 0.01884738f, 0.02787110f, 0.00737163f, 0.03153291f, -0.03482874f, -0.01377874f, -0.05975775f, 
    -0.04872286f, -0.01153952f, -0.03036275f, -0.02560909f, -0.03473920f, -0.00660347f, -0.04878566f, -0.00810657f, 
    -0.03323241f, -0.06642084f, -0.03449709f, -0.00330540f, 0.00886675f, -0.04605113f, -0.02249401f, -0.01784951f, 
    -0.06317586f, 0.02258448f, -0.00161389f, -0.00027953f, -0.00311193f, -0.01975650f, 0.00313364f, 0.02408390f, 
    0.05454050f, 0.05453736f, 0.01875810f, -0.01822082f, 0.04092357f, 0.05638068f, 0.05492156f, 0.01662913f, 
    0.02333062f, -0.01933761f, 0.05263187f, 0.04407821f, 0.05681932f, -0.03114916f, 0.02522974f, 0.04740063f, 
    0.02437889f, 0.03520314f, -0.00503384f, -0.02163437f, -0.01111051f, 0.00021927f, -0.00509542f, -0.00757470f, 
    -0.03896230f, -0.04235165f, 0.00705761f, -0.03590507f, -0.04863546f, -0.04574594f, -0.03099597f, 0.00772575f, 
    -0.01258503f, -0.05652694f, -0.03356791f, 0.00769949f, 0.00241366f, -0.03006421f, -0.01277770f, -0.06273131f, 
    0.01225481f, 0.01048564f, 0.01215037f, -0.02873532f, -0.05687632f, -0.04952266f, 0.01395643f, -0.01285204f, 
